{"learner":{"attributes":{"best_iteration":"343","best_ntree_limit":"344","best_score":"221.49424731701563","scikit_learn":"{\"n_estimators\": 1000, \"objective\": \"reg:squarederror\", \"max_depth\": 6, \"max_leaves\": null, \"max_bin\": null, \"grow_policy\": null, \"learning_rate\": 0.005, \"verbosity\": null, \"booster\": null, \"tree_method\": null, \"gamma\": null, \"min_child_weight\": null, \"max_delta_step\": null, \"subsample\": null, \"sampling_method\": null, \"colsample_bytree\": null, \"colsample_bylevel\": null, \"colsample_bynode\": null, \"reg_alpha\": null, \"reg_lambda\": null, \"scale_pos_weight\": null, \"base_score\": null, \"missing\": NaN, \"num_parallel_tree\": null, \"random_state\": 123, \"n_jobs\": null, \"monotone_constraints\": null, \"interaction_constraints\": null, \"importance_type\": null, \"gpu_id\": null, \"validate_parameters\": null, \"predictor\": null, \"enable_categorical\": false, \"feature_types\": null, \"max_cat_to_onehot\": null, \"max_cat_threshold\": null, \"eval_metric\": null, \"early_stopping_rounds\": 50, \"callbacks\": null, \"evals_result_\": {\"validation_0\": {\"rmse\": [1053.908489111063, 1049.488255870529, 1045.106715972373, 1040.7494766185273, 1036.405030385516, 1032.0983885170344, 1027.8035580969895, 1023.5466686212237, 1019.3013858785448, 1015.0944188188778, 1010.8975235213155, 1006.7393105121854, 1002.5821418622811, 998.472507762393, 994.3834606209816, 990.2977202058953, 986.2560369368308, 982.2175978112332, 978.2234217942364, 974.2189082905835, 970.2720889420182, 966.3360972343537, 962.4108198772581, 958.520320455361, 954.6474366252521, 950.8142729360954, 946.9683803497144, 943.1602698518893, 939.3285666621141, 935.5566595902322, 931.769395889563, 928.040818935749, 924.3034562559617, 920.586846825309, 916.8874607924897, 913.2032424005969, 909.5767628835091, 905.9403701772875, 902.3301633212518, 898.7366966787697, 895.208827158795, 891.6923708033158, 888.1982794384267, 884.6835133956387, 881.2340637770893, 877.7660585803366, 874.3526355705077, 870.9528090787143, 867.5531924046403, 864.1643716062994, 860.8376491749682, 857.4896066092643, 854.1606519494782, 850.8861917358678, 847.5988725811526, 844.329017073553, 841.1075105488302, 837.9157876787023, 834.7064201546397, 831.5438074652164, 828.3736524967496, 825.2469162700306, 822.0771687173324, 818.9936790446568, 815.9231511476081, 812.8069572851599, 809.7720851414628, 806.7647930897908, 803.7665078579676, 800.7537161779072, 797.7599386832999, 794.8157745648632, 791.8624812922319, 788.9518542413691, 786.0699753313944, 783.1631769882864, 780.311231125511, 777.4716413073639, 774.6510826034195, 771.8094207509095, 768.9788152153345, 766.215111251916, 763.4271027465137, 760.7005839910238, 757.9497448122638, 755.2553756989993, 752.5191571147706, 749.809688419277, 747.1383011711256, 744.5091605589304, 741.8785631522632, 739.2156916833019, 736.6194454469197, 733.9989736064562, 731.4594433609474, 728.8263203035874, 726.2608194400401, 723.7274825913602, 721.2229618759809, 718.7530763547536, 716.2377381703175, 713.6942525916975, 711.2588936861063, 708.8491586919904, 706.380295309563, 703.9009099052746, 701.5208931428868, 699.1635668755899, 696.7535141696488, 694.3300687874812, 691.9846663800463, 689.6922199391232, 687.3530621768105, 685.0330537153916, 682.7464485778154, 680.4501927111371, 678.1843148229723, 675.9133319283669, 673.6368541469276, 671.4179232063423, 669.240311973985, 666.9768261825584, 664.8281564861228, 662.6223332351396, 660.442614346101, 658.2775996768198, 656.171026713026, 654.0407492762229, 651.8657377410901, 649.8032932415862, 647.6917435406538, 645.6104379086778, 643.4975718141283, 641.449884854946, 639.4428369918177, 637.354775335085, 635.3762098454959, 633.3216090946489, 631.3262496925886, 629.3385954474936, 627.3306399723934, 625.364976060391, 623.4463254478393, 621.5165959008639, 619.5597044843119, 617.6454085039388, 615.7028874228977, 613.8206373211617, 611.9379881919496, 610.1010927500516, 608.2125351382344, 606.3646328868093, 604.5322820302583, 602.7114524861578, 600.8894373767349, 599.0993332209375, 597.3066752422474, 595.5461114009672, 593.7848914465151, 592.0478729145577, 590.3049557346659, 588.5843620716709, 586.9061413886519, 585.1505312946458, 583.450546324598, 581.7757945190797, 580.1341446579559, 578.4210314798216, 576.7954343319097, 575.1437710924522, 573.5050534331932, 571.8784320769615, 570.3001086619912, 568.711657026246, 567.0905917249736, 565.5427838497656, 563.9254046135234, 562.360211351374, 560.8133861959567, 559.3211321151957, 557.8016670400175, 556.2447298248132, 554.7388207066467, 553.2085480777861, 551.7579344701797, 550.2736209311596, 548.7976531464411, 547.3108458759871, 545.8841244985562, 544.4565411589749, 542.9771307380955, 541.5459251912539, 540.1282062674043, 538.7204877325177, 537.3285762962289, 535.9001000836512, 534.4987423112061, 533.1071363740871, 531.75787750795, 530.3874455513868, 529.0238220163765, 527.6928983488779, 526.3692959214743, 524.9947891573909, 523.6955239150822, 522.3461633489459, 521.0483438328735, 519.7485306786996, 518.439402798282, 517.1496033378503, 515.865208408815, 514.5964764360197, 513.3500774444897, 512.0720374158042, 510.81738008324123, 509.57982963295206, 508.38081586849273, 507.1433824595072, 505.89444965717723, 504.72652084664287, 503.53921458455966, 502.3156394836905, 501.1668517252297, 500.0360471609419, 498.85248749939467, 497.69383942044976, 496.5158445423634, 495.3817735174983, 494.2594487544792, 493.1727220888562, 492.0824762630385, 490.93200360446616, 489.80334945363506, 488.73404205750796, 487.6591179715791, 486.5480259038632, 485.4504963364524, 484.38240293846536, 483.30006777272433, 482.26056552557566, 481.17823450700814, 480.12738616131656, 479.09057519442365, 478.1012798598956, 477.0657023701962, 476.02707098524144, 475.0423679174455, 474.06224465643623, 473.07849529426903, 472.06891638731855, 471.10556673213154, 470.11988764696224, 469.11846410356947, 468.1933680785533, 467.2061139017347, 466.2678518491416, 465.349211371281, 464.4511215277699, 463.4861379023279, 462.5923513281457, 461.64629874256036, 460.7456760714511, 459.87458138142307, 458.9580204115388, 458.0933379680053, 457.1615335891093, 456.29398746530273, 455.43226029087907, 454.56487791297457, 453.73227021815836, 452.8917181782146, 452.04436373831993, 451.1599893907961, 450.3298152239887, 449.4918594521553, 448.66043906959726, 447.85999372321913, 447.0613705451903, 446.2558435769949, 445.4463871553392, 444.63503152848205, 443.8554139206747, 443.0753198131124, 442.24458061815517, 441.48835378924093, 440.6785226195112, 439.9319810840647, 439.1353229559645, 438.3789789642141, 437.65650495343823, 436.9030130096563, 436.14752323611856, 435.4037734252539, 434.6520986854456, 433.9280350857672, 433.20529344716533, 432.44911319252896, 431.76778157510716, 431.0166405728171, 430.31599151044475, 429.6269347543549, 428.93290472944153, 428.2427979714142, 427.51744748203953, 426.8398168943512, 426.1546992270268, 425.488830739535, 424.81998165839383, 424.0896741951313, 423.4090789107833, 422.729816189909, 422.09258282277847, 421.433220528948, 420.81798555103285, 420.14555361856964, 419.46152793995196, 418.8148737266199, 418.168221742413, 417.54716639256037, 416.95853379630614, 416.3088540854518, 415.63501381172955, 415.0388790918739, 414.4305706242658, 413.8543692642842, 413.25935256155014, 412.60335753521167, 411.99358554680134, 411.41954319369097, 410.76222586051574, 410.16595352731184, 409.6057421194493, 409.0328397668628, 408.4672394157687, 407.8885481914511, 407.3235012082461, 406.7070425356913, 406.14067592635183, 405.6052321236925, 405.0055387543685, 404.44663643324236, 403.8928198891242, 403.3415132413858, 402.7990136301683, 402.2314540374187, 401.68982270590874, 401.1777568530019, 400.6395291750351, 400.0950978692211, 399.5655029810118, 399.0679554359509, 398.56648876259356, 398.08160872060097, 397.51655612522615, 397.0172693618261, 396.50551710894695, 396.0182125532417, 395.5289446055882, 395.0610530489504, 394.5343870534043, 394.0342270463532, 393.47637483928037, 392.9697761821347, 392.4191201490671, 391.8738651116362, 391.3337782987652, 390.7936157788173, 390.3167082551071, 389.78147421741977, 389.25135288555674, 388.8073216186533, 388.28838584182654, 387.7721181602803, 387.26924173318685, 386.76264881942814, 386.32885760324547, 385.88375285960456, 385.38479670706886, 384.89227080878067, 384.40043250341785, 383.9167056921168, 383.51458801656696, 383.0369233773466, 382.5626241194554, 382.09301946528774, 381.6695338085487, 381.1981693232453, 380.7318661585937, 380.2903603755862, 379.89501236304903, 379.43971060580424, 378.99224903680886, 378.6051707435203, 378.16370621583394]}, \"validation_1\": {\"rmse\": [616.2692041824457, 612.9865199382774, 610.0779770388273, 607.1875575387776, 603.958946185239, 601.103888196824, 597.9127530494634, 595.0927344574308, 591.9378841704531, 589.1526281591725, 585.7777166650158, 583.0268293734753, 579.6871190337862, 576.9700121836992, 574.2702297314461, 570.9854164257156, 568.3190328279583, 565.0718702802747, 562.551485594526, 559.3438061777824, 556.7420156245487, 554.2701741961051, 551.1150399051043, 548.5631809328877, 545.4447372440028, 543.0393076979361, 539.9591729696016, 537.580666709382, 534.5330859826971, 531.967948798201, 528.9571362337682, 526.3821714832505, 523.9573855658282, 521.4140361382314, 519.0174358987409, 516.0986466109513, 513.5620021429509, 511.2087172004908, 508.7445789884747, 506.4189597905702, 503.96907725424325, 501.4789375068212, 499.05964437396955, 496.78363606912916, 494.341566304825, 491.9673813067142, 489.55331009025514, 487.20847637840524, 484.99358285542485, 482.7006803424648, 480.3453478098007, 478.7253664732376, 476.45293390094554, 474.26598950848523, 472.0435707375794, 470.4614658092341, 468.2463005606866, 465.9889562277015, 464.4357906450667, 462.28233415507003, 460.18696099496367, 458.0411168235408, 456.65275778278254, 454.59510043987154, 452.5085248078846, 451.0179992535145, 448.9389972236416, 446.90376567095984, 444.8520831996898, 443.5221790123782, 441.6376922280246, 439.6427725874163, 438.2142607682391, 436.36920611717784, 434.37519142673597, 432.44009930431173, 430.4740197558243, 428.67275476252195, 426.729835445027, 424.8027883837796, 423.4441419630115, 421.54081433382214, 419.5796868501769, 417.42170663151563, 415.5904118578062, 413.4631840615782, 412.1572168044418, 410.05814999661897, 408.1710369436225, 406.02316555588357, 404.3919480239206, 403.1284896711463, 401.098012580912, 399.45572832729613, 397.4144800933129, 395.92722030387625, 394.5567491013338, 392.59091450409204, 390.714767187423, 388.75186176655563, 387.5668220156825, 386.23914013455595, 384.296118793331, 382.38577707954715, 381.3347907570483, 379.9405582622716, 378.35206034789144, 376.4821437379171, 375.46051847146094, 374.1019659272415, 372.26131066283176, 370.45254855448974, 369.46040862433017, 368.13774036952543, 366.230464415435, 365.2592933647409, 363.5017909698205, 362.21472466508226, 360.7206074462137, 359.2802188145245, 357.4283665192174, 356.26566913100925, 354.50266716969105, 353.0598944237399, 351.45163513053336, 350.03094084761256, 348.32071768248176, 347.2088532677135, 345.8188141629506, 344.2695326123319, 343.1824757904371, 341.6055453407471, 340.255615301315, 338.61289078438637, 336.95934361747794, 335.91476194623823, 334.44889067467443, 333.1511564585087, 331.66883772435864, 330.6562382639011, 329.3090237837838, 327.84443646243795, 326.56882204426506, 325.0624706726305, 323.75936686669576, 322.39209969029974, 321.1113995658059, 319.6485293051846, 318.38879631072825, 317.0656165246829, 315.8280922045052, 314.5959590609727, 313.1780410811059, 311.7949942184785, 310.5956707875063, 309.35070166053316, 308.1733794591703, 306.838547397394, 305.69065734368576, 304.3482489155598, 303.1622429837005, 302.04033014014595, 300.7703221564631, 299.66996558642734, 298.4787316220535, 297.399667798802, 296.09620199667546, 295.0388398085428, 293.63949179354927, 292.6045564027922, 291.4660568405464, 290.2745182000701, 289.25511043795035, 288.2616783087183, 287.08195767999916, 285.8625537047262, 284.9019476582959, 283.7936760887455, 282.66393786977875, 281.6261674037525, 280.64087108184583, 279.7320435552148, 278.7304533975003, 277.61421522491963, 276.5875445393193, 275.71878254415026, 274.7708432375443, 273.8211993626525, 273.0209512254793, 272.07763961325685, 271.28846372927933, 270.43480588742665, 269.59562795023874, 268.7537514569039, 267.7977576423835, 266.8659441219995, 266.10194128930397, 265.3122813393883, 264.4646607982522, 263.67383630414986, 262.8773183235464, 262.12586046692604, 261.2978811386444, 260.5965409001313, 259.9373283172813, 259.203181830039, 258.41662199297906, 257.75048621993716, 257.04422868696395, 256.3474008305038, 255.7075381406255, 254.95686896545456, 254.1867082988954, 253.45961029543557, 252.8976801171911, 252.3525150509783, 251.66308751401766, 251.03771680666057, 250.46710440513596, 249.7446108375398, 249.2346136544857, 248.68880086783366, 248.16418835201284, 247.65180530371836, 247.04853760049278, 246.4448257371968, 245.93830936110572, 245.30010578865145, 244.76713046734437, 244.30695664578207, 243.7342674433758, 243.26688914349668, 242.7620208097755, 242.33086834908954, 241.77236937692888, 241.3347808195785, 240.8531279534068, 240.38000888858255, 239.96465334493118, 239.52920070319496, 239.1279109325156, 238.68803687134562, 238.31864941857478, 237.826100315883, 237.42456012347375, 237.01403708901702, 236.67167540187532, 236.34433045264677, 235.90478694116166, 235.51765845910387, 235.13488385601113, 234.76731039917627, 234.39874722530382, 234.03177650028846, 233.68482714406971, 233.27028872443603, 232.92475869140122, 232.60827396190865, 232.30032143456611, 231.9255335388817, 231.65774870434197, 231.36090387610628, 231.06038503411946, 230.77769140898792, 230.49506687485678, 230.27534701256582, 230.00366044887184, 229.73324982010487, 229.45208786227204, 229.1935638299017, 228.9552799207704, 228.6893813824301, 228.4800973902917, 228.22397736912976, 227.96800629058836, 227.78560578803246, 227.55036575845563, 227.3472825698189, 227.17755094807666, 226.95002643236077, 226.72692480668718, 226.59908724180605, 226.4041727946417, 226.1942446357053, 226.0105210440315, 225.8744595897918, 225.68412912163015, 225.49127083825255, 225.35548621363975, 225.17280394192562, 224.99242702909794, 224.8386681029032, 224.74694898761035, 224.59340427030656, 224.42822019748616, 224.29040047732286, 224.2093697000921, 224.07647005793655, 223.97217404441255, 223.82447987711402, 223.71598446031933, 223.57537093769815, 223.46294097212555, 223.40154446631374, 223.3161314032997, 223.18577604908896, 223.11378093494332, 223.03235275963348, 222.91502172235266, 222.82739733136432, 222.78463657021405, 222.69897870868868, 222.66170480808213, 222.59585511009766, 222.58371490579498, 222.5270556870831, 222.47684509461627, 222.48174067701964, 222.4059504572497, 222.35866029981307, 222.340792857295, 222.24305199981026, 222.164209904998, 222.12853929618436, 222.0559017515029, 221.97154568124787, 221.94687113134236, 221.94369807102348, 221.88523965052022, 221.8078005072018, 221.7341130275691, 221.69913986198875, 221.63449849097609, 221.64369534620135, 221.6253845868583, 221.62116638749896, 221.56185446156033, 221.53341310205593, 221.51123167962191, 221.530705059636, 221.55252199938582, 221.52687725618364, 221.53742466312053, 221.49424731701563, 221.50768269467508, 221.53713358981403, 221.55717826948677, 221.59074984031835, 221.6139803743816, 221.58885053858884, 221.58321967593335, 221.61304070633216, 221.62362304764645, 221.66503276239808, 221.66777426649912, 221.69976446670438, 221.71039603845165, 221.70065840375403, 221.7416037991831, 221.72671919826433, 221.7763058144566, 221.81908459846397, 221.85747327992067, 221.90274750168882, 221.94942396788716, 221.99709041155094, 222.00697479605162, 222.05445723868192, 222.18248139820327, 222.19779588484857, 222.2404726196048, 222.29488937959218, 222.31465860047652, 222.3281949806656, 222.38602073841602, 222.42262674525784, 222.5224792749086, 222.5419076423947, 222.60354781844518, 222.63402371319248, 222.692097595953, 222.787781383187, 222.8535895983614, 222.8771174196099, 222.94382308840235, 223.05102562586004, 223.09094156391592, 223.159398271782, 223.22263101971777, 223.27281478863853, 223.30640900147964, 223.37926320374177, 223.45160299414766, 223.5020339377362]}}, \"_estimator_type\": \"regressor\"}"},"feature_names":["year","total_consumption","month","Wind Onshore","Solar","day_of_week","Wind Offshore","hour"],"feature_types":["int","float","int","float","float","int","float","int"],"gradient_booster":{"model":{"gbtree_model_param":{"num_parallel_tree":"1","num_trees":"394","size_leaf_vector":"0"},"tree_info":[0,0,0,0,0,0,0,0,0,0,0,0,0,0,0,0,0,0,0,0,0,0,0,0,0,0,0,0,0,0,0,0,0,0,0,0,0,0,0,0,0,0,0,0,0,0,0,0,0,0,0,0,0,0,0,0,0,0,0,0,0,0,0,0,0,0,0,0,0,0,0,0,0,0,0,0,0,0,0,0,0,0,0,0,0,0,0,0,0,0,0,0,0,0,0,0,0,0,0,0,0,0,0,0,0,0,0,0,0,0,0,0,0,0,0,0,0,0,0,0,0,0,0,0,0,0,0,0,0,0,0,0,0,0,0,0,0,0,0,0,0,0,0,0,0,0,0,0,0,0,0,0,0,0,0,0,0,0,0,0,0,0,0,0,0,0,0,0,0,0,0,0,0,0,0,0,0,0,0,0,0,0,0,0,0,0,0,0,0,0,0,0,0,0,0,0,0,0,0,0,0,0,0,0,0,0,0,0,0,0,0,0,0,0,0,0,0,0,0,0,0,0,0,0,0,0,0,0,0,0,0,0,0,0,0,0,0,0,0,0,0,0,0,0,0,0,0,0,0,0,0,0,0,0,0,0,0,0,0,0,0,0,0,0,0,0,0,0,0,0,0,0,0,0,0,0,0,0,0,0,0,0,0,0,0,0,0,0,0,0,0,0,0,0,0,0,0,0,0,0,0,0,0,0,0,0,0,0,0,0,0,0,0,0,0,0,0,0,0,0,0,0,0,0,0,0,0,0,0,0,0,0,0,0,0,0,0,0,0,0,0,0,0,0,0,0,0,0,0,0,0,0,0,0,0,0,0,0,0,0,0,0,0,0,0,0,0,0,0,0,0,0,0,0,0,0,0,0,0,0,0,0,0,0,0,0,0,0,0,0,0,0,0,0],"trees":[{"base_weights":[8.236291E2,1.2655758E3,6.078282E2,9.794868E2,1.505254E3,5.17728E2,7.9909454E2,1.0552678E3,3.566397E2,1.6923584E3,9.631093E2,4.7553882E2,8.099529E2,9.356725E2,5.6083936E2,1.1502255E3,6.70599E2,4.673685E2,2.1652043E2,1.5455693E3,2.0160049E3,1.1716055E3,5.478403E2,7.213416E2,3.9183975E2,9.574007E2,5.212095E2,1.0746924E3,6.852531E2,4.6438055E2,6.949773E2,8.3576764E2,1.318691E3,7.7013416E2,4.8713916E2,2.6932968E2,6.426182E2,5.2376135E2,1.9204385E2,1.8330352E3,9.765202E2,2.1722646E3,1.6176831E3,1.2964838E3,7.395E2,6.320051E2,1.5006305E2,9.649708E2,5.412846E2,3.337172E2,5.5818585E2,1.0432051E3,8.159552E2,6.466718E2,4.3993118E2,1.4381655E3,9.558703E2,9.5965283E2,5.688788E2,5.7543384E2,3.497013E2,8.401144E2,6.3048706E2,5.7922516E2,9.543662E2,1.5122599E3,1.0649158E3,7.208957E2,1.2429403E3,5.854779E2,3.5509448E2,4.3975833E2,2.3415196E2,8.4277356E2,4.195663E2,8.175625E2,3.3215E2,3.3277856E2,1.7165439E2,2.3390466E3,1.7641179E3,7.4463336E2,1.2470376E3,2.2974941E3,2.0194224E3,1.8901492E3,1.340926E3,1.1441761E3,1.5509388E3,9.089865E2,1.9914084E2,4.9761987E2,9.818581E2,3.8026785E2,1.16995094E2,1.0097769E3,6.8658887E2,6.4119653E2,4.5130118E2,2.3231174E2,3.903115E2,6.653045E2,3.8466812E2,6.655686E2,1.0623599E3,6.181243E2,9.03148E2,4.9834064E2,7.874421E2,3.297186E2,5.053619E2,1.1103132E3,1.7586312E3,8.835243E2,1.045855E3,1.270425E3,8.975659E2,4.6E2,7.711565E2,6.518665E2,4.03641E2,2.8153976E2,4.1885486E2,9.8354785E2,6.178713E2,5.4869415E2,7.0118726E2],"categories":[],"categories_nodes":[],"categories_segments":[],"categories_sizes":[],"default_left":[1,1,1,1,1,1,1,1,1,1,1,1,1,1,1,1,1,1,1,1,1,1,1,1,1,1,1,1,1,1,1,1,1,1,1,1,1,1,1,1,1,1,1,1,1,1,1,1,1,1,1,1,1,1,1,1,1,1,1,1,1,1,1,0,0,0,0,0,0,0,0,0,0,0,0,0,0,0,0,0,0,0,0,0,0,0,0,0,0,0,0,0,0,0,0,0,0,0,0,0,0,0,0,0,0,0,0,0,0,0,0,0,0,0,0,0,0,0,0,0,0,0,0,0,0,0,0],"id":0,"left_children":[1,3,5,7,9,11,13,15,17,19,21,23,25,27,29,31,33,35,37,39,41,43,45,47,49,51,53,55,57,59,61,63,65,67,69,71,73,75,77,79,81,83,85,87,89,91,93,95,97,99,101,103,105,107,109,111,113,115,117,119,121,123,125,-1,-1,-1,-1,-1,-1,-1,-1,-1,-1,-1,-1,-1,-1,-1,-1,-1,-1,-1,-1,-1,-1,-1,-1,-1,-1,-1,-1,-1,-1,-1,-1,-1,-1,-1,-1,-1,-1,-1,-1,-1,-1,-1,-1,-1,-1,-1,-1,-1,-1,-1,-1,-1,-1,-1,-1,-1,-1,-1,-1,-1,-1,-1,-1],"loss_changes":[4.039213E9,9.514312E8,4.9010893E8,2.987776E8,7.652403E8,2.3820083E8,2.9601536E8,2.0560742E8,1.0588808E7,2.638295E8,1.6750042E8,3.476764E8,1.0338304E8,2.0086733E8,4.2672896E7,2.3887565E8,2.0095072E7,1.315412E7,2.200598E6,6.312735E8,1.0540954E8,6.875827E7,2.1699904E7,1.878871E8,1.218199E8,1.873728E7,8.148752E6,1.5937331E8,6.5555584E7,2.4454688E7,1.2461952E7,4.761088E7,1.4320486E8,1.5982176E7,4.947184E6,9.88173E5,8.709344E6,9.669505E5,7.60687E5,8.549786E7,8.068237E7,1.9362816E7,3.494272E7,3.7019776E7,2.6561392E7,2.4758496E7,8.309365E5,2.2057728E7,2.1934976E7,5.359168E7,6.044909E7,6.533632E6,1.0032896E7,6.352016E6,3.475072E6,9.418227E7,1.7356032E7,1.072608E7,3.1711872E7,1.2631136E7,4.383576E6,1.2908192E7,5.195648E6,0E0,0E0,0E0,0E0,0E0,0E0,0E0,0E0,0E0,0E0,0E0,0E0,0E0,0E0,0E0,0E0,0E0,0E0,0E0,0E0,0E0,0E0,0E0,0E0,0E0,0E0,0E0,0E0,0E0,0E0,0E0,0E0,0E0,0E0,0E0,0E0,0E0,0E0,0E0,0E0,0E0,0E0,0E0,0E0,0E0,0E0,0E0,0E0,0E0,0E0,0E0,0E0,0E0,0E0,0E0,0E0,0E0,0E0,0E0,0E0,0E0,0E0,0E0,0E0],"parents":[2147483647,0,0,1,1,2,2,3,3,4,4,5,5,6,6,7,7,8,8,9,9,10,10,11,11,12,12,13,13,14,14,15,15,16,16,17,17,18,18,19,19,20,20,21,21,22,22,23,23,24,24,25,25,26,26,27,27,28,28,29,29,30,30,31,31,32,32,33,33,34,34,35,35,36,36,37,37,38,38,39,39,40,40,41,41,42,42,43,43,44,44,45,45,46,46,47,47,48,48,49,49,50,50,51,51,52,52,53,53,54,54,55,55,56,56,57,57,58,58,59,59,60,60,61,61,62,62],"right_children":[2,4,6,8,10,12,14,16,18,20,22,24,26,28,30,32,34,36,38,40,42,44,46,48,50,52,54,56,58,60,62,64,66,68,70,72,74,76,78,80,82,84,86,88,90,92,94,96,98,100,102,104,106,108,110,112,114,116,118,120,122,124,126,-1,-1,-1,-1,-1,-1,-1,-1,-1,-1,-1,-1,-1,-1,-1,-1,-1,-1,-1,-1,-1,-1,-1,-1,-1,-1,-1,-1,-1,-1,-1,-1,-1,-1,-1,-1,-1,-1,-1,-1,-1,-1,-1,-1,-1,-1,-1,-1,-1,-1,-1,-1,-1,-1,-1,-1,-1,-1,-1,-1,-1,-1,-1,-1],"split_conditions":[2.0195E3,1.1404E4,1.299875E4,7.89575E3,5.6765E3,1.05E1,5.913375E3,8.155E2,4.5E0,9.5E0,9.619375E3,3.5E0,4.8785E3,2.201375E3,2.0215E3,9.472625E3,2.293125E3,1.021575E4,8.325875E3,7.5E0,3.512125E3,1.805E3,4.5E0,3.309125E3,8.5E0,2.5815E3,6.688E3,2.0205E3,3.5E0,9.371625E3,1.5E0,8.54E3,3.001E3,9.5E0,3.777875E3,8.544625E3,1.0396375E4,5.3175E2,4.0475E2,1.5E0,8.5E0,2.0185E3,2.0185E3,1.39365E4,4.5E0,1.05E1,1.5E0,1.59325E3,6.691125E3,2.0205E3,4.5E0,9.084E3,1.050625E4,1.15E1,1.15E1,1.4013625E4,2.0215E3,2.0205E3,8.5E0,1.542625E3,2.0205E3,1.1908625E4,1.434575E4,2.8961258E0,4.771831E0,7.5612993E0,5.324579E0,3.6044784E0,6.214701E0,2.9273894E0,1.7754724E0,2.1987915E0,1.1707598E0,4.2138677E0,2.0978315E0,4.0878124E0,1.6607499E0,1.6638927E0,8.582719E-1,1.1695233E1,8.820589E0,3.7231667E0,6.235188E0,1.1487471E1,1.0097112E1,9.450746E0,6.70463E0,5.7208805E0,7.754694E0,4.5449324E0,9.957042E-1,2.4880993E0,4.9092903E0,1.9013392E0,5.849755E-1,5.0488844E0,3.4329443E0,3.2059827E0,2.2565057E0,1.1615586E0,1.9515574E0,3.3265224E0,1.9233406E0,3.327843E0,5.311799E0,3.0906215E0,4.51574E0,2.491703E0,3.9372103E0,1.648593E0,2.5268095E0,5.551566E0,8.793156E0,4.417621E0,5.2292747E0,6.352125E0,4.4878297E0,2.3E0,3.8557823E0,3.2593324E0,2.018205E0,1.4076988E0,2.0942743E0,4.917739E0,3.0893564E0,2.7434707E0,3.5059361E0],"split_indices":[0,1,1,3,3,2,3,4,5,2,3,2,3,4,0,1,3,1,3,2,3,4,5,3,2,3,3,0,2,3,2,1,3,2,4,3,3,6,6,2,2,0,0,1,5,2,2,4,3,0,5,1,1,2,2,1,0,0,2,4,0,3,1,0,0,0,0,0,0,0,0,0,0,0,0,0,0,0,0,0,0,0,0,0,0,0,0,0,0,0,0,0,0,0,0,0,0,0,0,0,0,0,0,0,0,0,0,0,0,0,0,0,0,0,0,0,0,0,0,0,0,0,0,0,0,0,0],"split_type":[0,0,0,0,0,0,0,0,0,0,0,0,0,0,0,0,0,0,0,0,0,0,0,0,0,0,0,0,0,0,0,0,0,0,0,0,0,0,0,0,0,0,0,0,0,0,0,0,0,0,0,0,0,0,0,0,0,0,0,0,0,0,0,0,0,0,0,0,0,0,0,0,0,0,0,0,0,0,0,0,0,0,0,0,0,0,0,0,0,0,0,0,0,0,0,0,0,0,0,0,0,0,0,0,0,0,0,0,0,0,0,0,0,0,0,0,0,0,0,0,0,0,0,0,0,0,0],"sum_hessian":[4.2359E4,1.3896E4,2.8463E4,6.337E3,7.559E3,1.9351E4,9.112E3,5.649E3,6.88E2,5.618E3,1.941E3,1.6912E4,2.439E3,5.79E3,3.322E3,4.529E3,1.12E3,3.83E2,3.05E2,3.869E3,1.749E3,1.291E3,6.5E2,4.294E3,1.2618E4,1.613E3,8.26E2,3.721E3,2.069E3,1.935E3,1.387E3,1.582E3,2.947E3,7.24E2,3.96E2,1.81E2,2.02E2,2.1E1,2.84E2,2.569E3,1.3E3,1.253E3,4.96E2,1E3,2.91E2,5.36E2,1.14E2,1.823E3,2.471E3,9.353E3,3.265E3,1E3,6.13E2,3.22E2,5.04E2,9.14E2,2.807E3,6.14E2,1.455E3,9.81E2,9.54E2,4.23E2,9.64E2,5.02E2,1.08E3,1.669E3,1.278E3,6.58E2,6.6E1,2.25E2,1.71E2,2.9E1,1.52E2,1.05E2,9.7E1,7E0,1.4E1,3.4E1,2.5E2,3.04E2,2.265E3,7.02E2,5.98E2,6.81E2,5.72E2,2.47E2,2.49E2,6.29E2,3.71E2,2.21E2,7E1,3.89E2,1.47E2,1.3E1,1.01E2,1.568E3,2.55E2,1.168E3,1.303E3,3.352E3,6.001E3,2.017E3,1.248E3,5E1,9.5E2,1.9E2,4.23E2,1.59E2,1.63E2,1.9E2,3.14E2,4.54E2,4.6E2,1.562E3,1.245E3,9.9E1,5.15E2,9.48E2,5.07E2,6.77E2,3.04E2,4.83E2,4.71E2,2.55E2,1.68E2,4.51E2,5.13E2],"tree_param":{"num_deleted":"0","num_feature":"8","num_nodes":"127","size_leaf_vector":"0"}},{"base_weights":[8.195172E2,1.2592588E3,6.04793E2,9.745978E2,1.4977406E3,5.2946326E2,8.313017E2,1.0499977E3,3.5488254E2,1.6839087E3,9.5830865E2,7.290867E2,4.6930936E2,1.00786725E3,5.686036E2,1.1444789E3,6.67259E2,4.6505685E2,2.1546484E2,1.5378494E3,2.0059464E3,1.1657622E3,5.451162E2,9.678514E2,5.498608E2,3.3936624E2,6.7556744E2,1.3608802E3,8.996894E2,4.6855673E2,7.099824E2,8.315936E2,1.312102E3,7.66297E2,4.8471533E2,2.6800153E2,6.394362E2,5.214039E2,1.9109248E2,1.823878E3,9.716452E2,2.1614207E3,1.6096272E3,1.2900149E3,7.358215E2,6.288589E2,1.4933435E2,1.0068895E3,7.2402246E2,6.3555023E2,4.3711917E2,2.3565887E2,3.9528845E2,7.7308154E2,4.576539E2,1.592662E3,9.2604193E2,9.7241846E2,7.3001013E2,5.87162E2,3.455019E2,7.918923E2,5.7969806E2,5.763348E2,9.495988E2,1.5047031E3,1.0595953E3,7.1729663E2,1.2368184E3,5.825634E2,3.533293E2,4.3763284E2,2.3298886E2,8.385995E2,4.174899E2,8.1398566E2,3.3059998E2,1.0210983E2,2.2181573E2,2.32739E3,1.7553013E3,7.409155E2,1.2408127E3,2.2860234E3,2.0093428E3,1.8807366E3,1.3342482E3,1.1384644E3,1.5432051E3,9.0446204E2,1.9815916E2,4.9513815E2,9.76982E2,3.7850232E2,1.16415855E2,1.2716963E3,9.4558234E2,9.2093866E2,5.845288E2,7.505936E2,5.0189536E2,2.8977808E2,5.488511E2,2.881223E2,1.1254143E2,6.076491E2,3.535746E2,6.468604E2,9.7279205E2,3.7940067E2,6.379334E2,1.2004028E3,1.7731722E3,1.403441E3,7.46428E2,8.971646E2,1.069987E3,9.055303E2,6.01102E2,8.974152E2,5.325828E2,2.8399112E2,4.0558728E2,9.2319165E2,6.12989E2,5.48795E2,7.360091E2],"categories":[],"categories_nodes":[],"categories_segments":[],"categories_sizes":[],"default_left":[1,1,1,1,1,1,1,1,1,1,1,1,1,1,1,1,1,1,1,1,1,1,1,1,1,1,1,1,1,1,1,1,1,1,1,1,1,1,1,1,1,1,1,1,1,1,1,1,1,1,1,1,1,1,1,1,1,1,1,1,1,1,1,0,0,0,0,0,0,0,0,0,0,0,0,0,0,0,0,0,0,0,0,0,0,0,0,0,0,0,0,0,0,0,0,0,0,0,0,0,0,0,0,0,0,0,0,0,0,0,0,0,0,0,0,0,0,0,0,0,0,0,0,0,0,0,0],"id":1,"left_children":[1,3,5,7,9,11,13,15,17,19,21,23,25,27,29,31,33,35,37,39,41,43,45,47,49,51,53,55,57,59,61,63,65,67,69,71,73,75,77,79,81,83,85,87,89,91,93,95,97,99,101,103,105,107,109,111,113,115,117,119,121,123,125,-1,-1,-1,-1,-1,-1,-1,-1,-1,-1,-1,-1,-1,-1,-1,-1,-1,-1,-1,-1,-1,-1,-1,-1,-1,-1,-1,-1,-1,-1,-1,-1,-1,-1,-1,-1,-1,-1,-1,-1,-1,-1,-1,-1,-1,-1,-1,-1,-1,-1,-1,-1,-1,-1,-1,-1,-1,-1,-1,-1,-1,-1,-1,-1],"loss_changes":[3.9990026E9,9.419592E8,4.8523674E8,2.9577933E8,7.5760026E8,2.5618688E8,3.2884224E8,2.035497E8,1.0483016E7,2.612142E8,1.6582925E8,2.110784E8,4.3983E8,1.6092262E8,4.007821E7,2.364928E8,1.989488E7,1.3023784E7,2.182039E6,6.249759E8,1.0435174E8,6.807117E7,2.1482736E7,1.9441024E7,2.7033152E7,5.833715E7,1.3447526E8,9.870797E7,3.9433984E7,2.425824E7,1.2154752E7,4.7135616E7,1.4177638E8,1.5828224E7,4.897952E6,9.78979E5,8.623208E6,9.59063E5,7.56494E5,8.46551E7,7.987917E7,1.9168768E7,3.4595584E7,3.665267E7,2.6296912E7,2.4514288E7,8.234805E5,2.8409344E7,7.592384E6,2.4286528E7,1.9991296E7,2.2781328E7,5.775443E7,1.0983091E8,2.7465024E7,4.3683584E7,2.8792576E7,1.5736576E7,2.1629152E7,1.394928E7,2.933936E6,1.641728E7,1.818096E6,0E0,0E0,0E0,0E0,0E0,0E0,0E0,0E0,0E0,0E0,0E0,0E0,0E0,0E0,0E0,0E0,0E0,0E0,0E0,0E0,0E0,0E0,0E0,0E0,0E0,0E0,0E0,0E0,0E0,0E0,0E0,0E0,0E0,0E0,0E0,0E0,0E0,0E0,0E0,0E0,0E0,0E0,0E0,0E0,0E0,0E0,0E0,0E0,0E0,0E0,0E0,0E0,0E0,0E0,0E0,0E0,0E0,0E0,0E0,0E0,0E0,0E0,0E0,0E0],"parents":[2147483647,0,0,1,1,2,2,3,3,4,4,5,5,6,6,7,7,8,8,9,9,10,10,11,11,12,12,13,13,14,14,15,15,16,16,17,17,18,18,19,19,20,20,21,21,22,22,23,23,24,24,25,25,26,26,27,27,28,28,29,29,30,30,31,31,32,32,33,33,34,34,35,35,36,36,37,37,38,38,39,39,40,40,41,41,42,42,43,43,44,44,45,45,46,46,47,47,48,48,49,49,50,50,51,51,52,52,53,53,54,54,55,55,56,56,57,57,58,58,59,59,60,60,61,61,62,62],"right_children":[2,4,6,8,10,12,14,16,18,20,22,24,26,28,30,32,34,36,38,40,42,44,46,48,50,52,54,56,58,60,62,64,66,68,70,72,74,76,78,80,82,84,86,88,90,92,94,96,98,100,102,104,106,108,110,112,114,116,118,120,122,124,126,-1,-1,-1,-1,-1,-1,-1,-1,-1,-1,-1,-1,-1,-1,-1,-1,-1,-1,-1,-1,-1,-1,-1,-1,-1,-1,-1,-1,-1,-1,-1,-1,-1,-1,-1,-1,-1,-1,-1,-1,-1,-1,-1,-1,-1,-1,-1,-1,-1,-1,-1,-1,-1,-1,-1,-1,-1,-1,-1,-1,-1,-1,-1,-1],"split_conditions":[2.0195E3,1.1404E4,1.3424625E4,7.89575E3,5.6765E3,3.5E0,5.913375E3,8.155E2,4.5E0,9.5E0,9.619375E3,3.309125E3,8.5E0,2.0205E3,2.0215E3,9.472625E3,2.293125E3,1.021575E4,8.325875E3,7.5E0,3.512125E3,1.805E3,4.5E0,2.3155E3,7.910125E3,2.0205E3,4.52225E3,1.770625E3,2.242875E3,9.471375E3,1.1533375E4,8.54E3,3.001E3,9.5E0,3.777875E3,8.544625E3,1.0396375E4,5.3175E2,2.5E0,1.5E0,8.5E0,2.0185E3,2.0185E3,1.39365E4,4.5E0,1.05E1,1.5E0,2.0205E3,9.47125E2,4.5E0,2.0215E3,4.5E0,4.5E0,1.05E1,1.15E1,1.39925E4,3.5E0,2.0215E3,3.5E0,1.5E0,2.0205E3,2.5E0,1.6165625E4,2.8816738E0,4.747994E0,7.523515E0,5.2979765E0,3.586483E0,6.1840916E0,2.912817E0,1.7666465E0,2.1881642E0,1.1649443E0,4.1929975E0,2.0874496E0,4.069928E0,1.6529999E0,5.105491E-1,1.1090786E0,1.163695E1,8.776506E0,3.7045774E0,6.2040634E0,1.1430117E1,1.0046714E1,9.403683E0,6.671241E0,5.692322E0,7.7160254E0,4.5223103E0,9.907958E-1,2.4756906E0,4.8849096E0,1.8925116E0,5.820793E-1,6.3584814E0,4.7279115E0,4.6046934E0,2.922644E0,3.752968E0,2.5094767E0,1.4488903E0,2.7442553E0,1.4406115E0,5.627071E-1,3.0382454E0,1.7678729E0,3.234302E0,4.8639603E0,1.8970033E0,3.189667E0,6.002014E0,8.865861E0,7.017205E0,3.7321398E0,4.485823E0,5.349935E0,4.5276513E0,3.0055099E0,4.487076E0,2.662914E0,1.4199556E0,2.0279365E0,4.615958E0,3.064945E0,2.743975E0,3.6800454E0],"split_indices":[0,1,1,3,3,2,3,4,5,2,3,3,2,0,0,1,3,1,3,2,3,4,5,4,3,0,3,4,4,3,3,1,3,2,4,3,3,6,2,2,2,0,0,1,5,2,2,0,3,5,0,5,2,2,2,1,2,0,2,2,0,2,1,0,0,0,0,0,0,0,0,0,0,0,0,0,0,0,0,0,0,0,0,0,0,0,0,0,0,0,0,0,0,0,0,0,0,0,0,0,0,0,0,0,0,0,0,0,0,0,0,0,0,0,0,0,0,0,0,0,0,0,0,0,0,0,0],"split_type":[0,0,0,0,0,0,0,0,0,0,0,0,0,0,0,0,0,0,0,0,0,0,0,0,0,0,0,0,0,0,0,0,0,0,0,0,0,0,0,0,0,0,0,0,0,0,0,0,0,0,0,0,0,0,0,0,0,0,0,0,0,0,0,0,0,0,0,0,0,0,0,0,0,0,0,0,0,0,0,0,0,0,0,0,0,0,0,0,0,0,0,0,0,0,0,0,0,0,0,0,0,0,0,0,0,0,0,0,0,0,0,0,0,0,0,0,0,0,0,0,0,0,0,0,0,0,0],"sum_hessian":[4.2359E4,1.3896E4,2.8463E4,6.337E3,7.559E3,2.1362E4,7.101E3,5.649E3,6.88E2,5.618E3,1.941E3,4.944E3,1.6418E4,4.245E3,2.856E3,4.529E3,1.12E3,3.83E2,3.05E2,3.869E3,1.749E3,1.291E3,6.5E2,2.118E3,2.826E3,1.0074E4,6.344E3,9.93E2,3.252E3,1.675E3,1.181E3,1.582E3,2.947E3,7.24E2,3.96E2,1.81E2,2.02E2,2.1E1,2.84E2,2.569E3,1.3E3,1.253E3,4.96E2,1E3,2.91E2,5.36E2,1.14E2,1.823E3,2.95E2,1.603E3,1.223E3,3.531E3,6.543E3,4.381E3,1.963E3,6.46E2,3.47E2,2.273E3,9.79E2,8.51E2,8.24E2,7.22E2,4.59E2,5.02E2,1.08E3,1.669E3,1.278E3,6.58E2,6.6E1,2.25E2,1.71E2,2.9E1,1.52E2,1.05E2,9.7E1,7E0,1.4E1,7.4E1,2.1E2,3.04E2,2.265E3,7.02E2,5.98E2,6.81E2,5.72E2,2.47E2,2.49E2,6.29E2,3.71E2,2.21E2,7E1,3.89E2,1.47E2,1.3E1,1.01E2,3.39E2,1.484E3,1.2E2,1.75E2,8.59E2,7.44E2,5.29E2,6.94E2,2.475E3,1.056E3,1.072E3,5.471E3,2.687E3,1.694E3,1.371E3,5.92E2,2.06E2,4.4E2,9.3E1,2.54E2,1.289E3,9.84E2,4.12E2,5.67E2,1.25E2,7.26E2,4.1E2,4.14E2,4.14E2,3.08E2,3.87E2,7.2E1],"tree_param":{"num_deleted":"0","num_feature":"8","num_nodes":"127","size_leaf_vector":"0"}},{"base_weights":[8.1542584E2,1.2529731E3,6.0177313E2,9.69733E2,1.4902646E3,5.12525E2,7.9123083E2,1.0447538E3,3.5313278E2,1.6755012E3,9.535319E2,4.7075107E2,8.018738E2,9.264904E2,5.5527545E2,1.138761E3,6.639356E2,4.6275665E2,2.1441153E2,1.530168E3,1.9959381E3,1.159948E3,5.4240576E2,7.1409576E2,3.87889E2,9.478686E2,5.1597595E2,1.0641487E3,6.785241E2,4.5976068E2,6.881006E2,8.274405E2,1.3055458E3,7.62479E2,4.8230353E2,2.6667996E2,6.3626996E2,5.19057E2,1.9014272E2,1.8147666E3,9.667946E2,2.1506306E3,1.6016115E3,1.2560055E3,6.0980786E2,6.257283E2,1.4860919E2,9.5529193E2,5.3583685E2,3.3036896E2,5.5251086E2,1.0331385E3,8.0730975E2,6.409149E2,4.350428E2,1.4241981E3,9.4644586E2,9.501895E2,5.633093E2,5.697399E2,3.4619067E2,8.3212E2,6.241085E2,5.7345886E2,9.448552E2,1.4971841E3,1.0543015E3,7.1371564E2,1.2307266E3,5.796635E2,3.5157297E2,4.355176E2,2.3183153E2,8.3444604E2,4.1542374E2,8.104245E2,3.2905716E2,3.3008484E2,1.6987134E2,2.315791E3,1.7465286E3,7.372162E2,1.2346191E3,2.2746104E3,1.9993137E3,1.8713708E3,1.3276036E3,1.0989664E3,1.515197E3,7.764649E2,1.5178683E2,4.9266882E2,9.7213007E2,3.76745E2,1.15839485E2,9.997039E2,6.7936346E2,6.3481793E2,4.466921E2,2.2998657E2,3.8639224E2,6.5906635E2,3.7990756E2,6.575375E2,1.0521948E3,6.390642E2,9.092319E2,4.9397934E2,7.8035864E2,3.2619156E2,4.9966357E2,1.0998638E3,1.7412217E3,8.74769E2,1.0355988E3,1.2580227E3,8.886904E2,4.5528192E2,7.640075E2,6.456789E2,3.9906335E2,2.7865366E2,4.1471127E2,9.742705E2,6.118675E2,5.4299506E2,6.9422363E2],"categories":[],"categories_nodes":[],"categories_segments":[],"categories_sizes":[],"default_left":[1,1,1,1,1,1,1,1,1,1,1,1,1,1,1,1,1,1,1,1,1,1,1,1,1,1,1,1,1,1,1,1,1,1,1,1,1,1,1,1,1,1,1,1,1,1,1,1,1,1,1,1,1,1,1,1,1,1,1,1,1,1,1,0,0,0,0,0,0,0,0,0,0,0,0,0,0,0,0,0,0,0,0,0,0,0,0,0,0,0,0,0,0,0,0,0,0,0,0,0,0,0,0,0,0,0,0,0,0,0,0,0,0,0,0,0,0,0,0,0,0,0,0,0,0,0,0],"id":2,"left_children":[1,3,5,7,9,11,13,15,17,19,21,23,25,27,29,31,33,35,37,39,41,43,45,47,49,51,53,55,57,59,61,63,65,67,69,71,73,75,77,79,81,83,85,87,89,91,93,95,97,99,101,103,105,107,109,111,113,115,117,119,121,123,125,-1,-1,-1,-1,-1,-1,-1,-1,-1,-1,-1,-1,-1,-1,-1,-1,-1,-1,-1,-1,-1,-1,-1,-1,-1,-1,-1,-1,-1,-1,-1,-1,-1,-1,-1,-1,-1,-1,-1,-1,-1,-1,-1,-1,-1,-1,-1,-1,-1,-1,-1,-1,-1,-1,-1,-1,-1,-1,-1,-1,-1,-1,-1,-1],"loss_changes":[3.9591956E9,9.325793E8,4.808837E8,2.928133E8,7.50036E8,2.3353498E8,2.9032858E8,2.0151194E8,1.037852E7,2.5862349E8,1.6417485E8,3.4075776E8,1.0135552E8,1.9695155E8,4.184173E7,2.341335E8,1.969664E7,1.2894736E7,2.163679E6,6.187428E8,1.0330522E8,6.751002E7,2.1267696E7,1.8415334E8,1.1930739E8,1.8510336E7,8.083552E6,1.5638605E8,6.425555E7,2.3984064E7,1.2272576E7,4.6665216E7,1.4036173E8,1.5675808E7,4.849192E6,9.6987E5,8.537936E6,9.51239E5,7.52423E5,8.382106E7,7.90839E7,1.897728E7,3.4251776E7,4.3067776E7,1.4690632E7,2.427248E7,8.1609175E5,2.167296E7,2.1528448E7,5.2515584E7,5.981741E7,6.472896E6,9.947776E6,6.232544E6,3.389208E6,9.216666E7,1.7037824E7,1.05248E7,3.1219584E7,1.2470048E7,4.303864E6,1.2678912E7,5.111264E6,0E0,0E0,0E0,0E0,0E0,0E0,0E0,0E0,0E0,0E0,0E0,0E0,0E0,0E0,0E0,0E0,0E0,0E0,0E0,0E0,0E0,0E0,0E0,0E0,0E0,0E0,0E0,0E0,0E0,0E0,0E0,0E0,0E0,0E0,0E0,0E0,0E0,0E0,0E0,0E0,0E0,0E0,0E0,0E0,0E0,0E0,0E0,0E0,0E0,0E0,0E0,0E0,0E0,0E0,0E0,0E0,0E0,0E0,0E0,0E0,0E0,0E0,0E0,0E0],"parents":[2147483647,0,0,1,1,2,2,3,3,4,4,5,5,6,6,7,7,8,8,9,9,10,10,11,11,12,12,13,13,14,14,15,15,16,16,17,17,18,18,19,19,20,20,21,21,22,22,23,23,24,24,25,25,26,26,27,27,28,28,29,29,30,30,31,31,32,32,33,33,34,34,35,35,36,36,37,37,38,38,39,39,40,40,41,41,42,42,43,43,44,44,45,45,46,46,47,47,48,48,49,49,50,50,51,51,52,52,53,53,54,54,55,55,56,56,57,57,58,58,59,59,60,60,61,61,62,62],"right_children":[2,4,6,8,10,12,14,16,18,20,22,24,26,28,30,32,34,36,38,40,42,44,46,48,50,52,54,56,58,60,62,64,66,68,70,72,74,76,78,80,82,84,86,88,90,92,94,96,98,100,102,104,106,108,110,112,114,116,118,120,122,124,126,-1,-1,-1,-1,-1,-1,-1,-1,-1,-1,-1,-1,-1,-1,-1,-1,-1,-1,-1,-1,-1,-1,-1,-1,-1,-1,-1,-1,-1,-1,-1,-1,-1,-1,-1,-1,-1,-1,-1,-1,-1,-1,-1,-1,-1,-1,-1,-1,-1,-1,-1,-1,-1,-1,-1,-1,-1,-1,-1,-1,-1,-1,-1,-1],"split_conditions":[2.0195E3,1.1404E4,1.299875E4,7.89575E3,5.6765E3,1.05E1,5.913375E3,8.155E2,4.5E0,9.5E0,9.619375E3,3.5E0,4.8785E3,2.201375E3,2.0215E3,9.472625E3,2.293125E3,1.021575E4,8.325875E3,7.5E0,3.512125E3,2.82025E3,4.5E0,3.309125E3,8.5E0,2.5815E3,6.688E3,2.0205E3,3.5E0,9.371625E3,1.5E0,8.54E3,3.001E3,9.5E0,3.777875E3,8.544625E3,1.0396375E4,5.3175E2,4.0475E2,1.5E0,8.5E0,2.0185E3,2.0185E3,1.39365E4,4.5E0,1.05E1,1.5E0,1.59325E3,6.691125E3,2.0205E3,4.5E0,9.084E3,1.077E4,1.15E1,1.15E1,1.4013625E4,2.0215E3,2.0205E3,8.5E0,1.542625E3,2.0205E3,1.1908625E4,1.434575E4,2.8672943E0,4.724276E0,7.4859204E0,5.2715073E0,3.568578E0,6.1536326E0,2.8983176E0,1.7578648E0,2.177588E0,1.1591576E0,4.1722302E0,2.0771186E0,4.0521226E0,1.6452857E0,1.6504241E0,8.4935665E-1,1.1578955E1,8.732642E0,3.686081E0,6.1730957E0,1.1373052E1,9.996569E0,9.356854E0,6.638018E0,5.494832E0,7.575985E0,3.8823245E0,7.5893414E-1,2.463344E0,4.86065E0,1.8837249E0,5.791974E-1,4.9985194E0,3.3968172E0,3.1740897E0,2.2334604E0,1.1499329E0,1.9319612E0,3.2953317E0,1.8995378E0,3.2876873E0,5.260974E0,3.195321E0,4.5461593E0,2.4698966E0,3.9017932E0,1.6309577E0,2.4983177E0,5.4993186E0,8.706108E0,4.3738446E0,5.177994E0,6.2901134E0,4.443452E0,2.2764096E0,3.8200374E0,3.2283945E0,1.9953167E0,1.3932682E0,2.0735564E0,4.871352E0,3.0593374E0,2.714975E0,3.471118E0],"split_indices":[0,1,1,3,3,2,3,4,5,2,3,2,3,4,0,1,3,1,3,2,3,4,5,3,2,3,3,0,2,3,2,1,3,2,4,3,3,6,6,2,2,0,0,1,5,2,2,4,3,0,5,1,1,2,2,1,0,0,2,4,0,3,1,0,0,0,0,0,0,0,0,0,0,0,0,0,0,0,0,0,0,0,0,0,0,0,0,0,0,0,0,0,0,0,0,0,0,0,0,0,0,0,0,0,0,0,0,0,0,0,0,0,0,0,0,0,0,0,0,0,0,0,0,0,0,0,0],"split_type":[0,0,0,0,0,0,0,0,0,0,0,0,0,0,0,0,0,0,0,0,0,0,0,0,0,0,0,0,0,0,0,0,0,0,0,0,0,0,0,0,0,0,0,0,0,0,0,0,0,0,0,0,0,0,0,0,0,0,0,0,0,0,0,0,0,0,0,0,0,0,0,0,0,0,0,0,0,0,0,0,0,0,0,0,0,0,0,0,0,0,0,0,0,0,0,0,0,0,0,0,0,0,0,0,0,0,0,0,0,0,0,0,0,0,0,0,0,0,0,0,0,0,0,0,0,0,0],"sum_hessian":[4.2359E4,1.3896E4,2.8463E4,6.337E3,7.559E3,1.9351E4,9.112E3,5.649E3,6.88E2,5.618E3,1.941E3,1.6912E4,2.439E3,5.79E3,3.322E3,4.529E3,1.12E3,3.83E2,3.05E2,3.869E3,1.749E3,1.291E3,6.5E2,4.294E3,1.2618E4,1.613E3,8.26E2,3.721E3,2.069E3,1.935E3,1.387E3,1.582E3,2.947E3,7.24E2,3.96E2,1.81E2,2.02E2,2.1E1,2.84E2,2.569E3,1.3E3,1.253E3,4.96E2,1.098E3,1.93E2,5.36E2,1.14E2,1.823E3,2.471E3,9.353E3,3.265E3,1E3,6.13E2,3.22E2,5.04E2,9.14E2,2.807E3,6.14E2,1.455E3,9.81E2,9.54E2,4.23E2,9.64E2,5.02E2,1.08E3,1.669E3,1.278E3,6.58E2,6.6E1,2.25E2,1.71E2,2.9E1,1.52E2,1.05E2,9.7E1,7E0,1.4E1,3.4E1,2.5E2,3.04E2,2.265E3,7.02E2,5.98E2,6.81E2,5.72E2,2.47E2,2.49E2,6.87E2,4.11E2,1.41E2,5.2E1,3.89E2,1.47E2,1.3E1,1.01E2,1.568E3,2.55E2,1.168E3,1.303E3,3.352E3,6.001E3,2.017E3,1.248E3,5E1,9.5E2,2.34E2,3.79E2,1.59E2,1.63E2,1.9E2,3.14E2,4.54E2,4.6E2,1.562E3,1.245E3,9.9E1,5.15E2,9.48E2,5.07E2,6.77E2,3.04E2,4.83E2,4.71E2,2.55E2,1.68E2,4.51E2,5.13E2],"tree_param":{"num_deleted":"0","num_feature":"8","num_nodes":"127","size_leaf_vector":"0"}},{"base_weights":[8.1135486E2,1.2467189E3,5.9876825E2,9.648926E2,1.4828259E3,5.0996497E2,7.872816E2,1.0395363E3,3.513929E2,1.6610072E3,9.3039404E2,4.6839862E2,7.9787537E2,9.21865E2,5.525059E2,1.1330717E3,6.606287E2,4.6046783E2,2.1336626E2,1.5190989E3,1.9678169E3,1.1422717E3,5.3970874E2,7.105285E2,3.8595023E2,9.431393E2,5.134088E2,1.0588342E3,6.751396E2,4.5746637E2,6.846702E2,8.2330804E2,1.2990225E3,7.5868E2,4.7990375E2,2.653649E2,6.3311945E2,5.1672064E2,1.8920076E2,1.8026606E3,9.590034E2,2.1398945E3,1.5726202E3,1.2408766E3,6.001659E2,6.226133E2,1.4788757E2,9.505201E2,5.3315985E2,3.2871744E2,5.497499E2,1.0279814E3,8.032858E2,6.3773004E2,4.3287576E2,1.4170925E3,9.4171704E2,9.45456E2,5.6049695E2,5.6689655E2,3.4446335E2,8.279781E2,6.209944E2,5.705972E2,9.4013525E2,1.4897026E3,1.0490342E3,7.1015247E2,1.2246648E3,5.76778E2,3.4982532E2,4.334126E2,2.3067995E2,8.303132E2,4.1336783E2,8.068789E2,3.2752158E2,1.0076807E2,2.197375E2,2.3039927E3,1.7341666E3,7.3004553E2,1.2247947E3,2.263254E3,1.9893346E3,1.8655276E3,1.2946973E3,1.0771138E3,1.5021449E3,7.685394E2,1.3940181E2,4.902118E2,9.6730225E2,3.7499585E2,1.1526597E2,9.947086E2,6.759799E2,6.3164655E2,4.4446036E2,2.2883698E2,3.844606E2,6.5577264E2,3.7800955E2,6.543142E2,1.0469393E3,6.072352E2,8.897065E2,4.915249E2,7.7648065E2,3.2456915E2,4.971732E2,1.0943766E3,1.7325344E3,8.7039795E2,1.0304249E3,1.2517955E3,8.842556E2,4.530079E2,7.60195E2,6.4245526E2,3.970746E2,2.7726324E2,4.1264212E2,9.694182E2,6.088263E2,5.4028613E2,6.907593E2],"categories":[],"categories_nodes":[],"categories_segments":[],"categories_sizes":[],"default_left":[1,1,1,1,1,1,1,1,1,1,1,1,1,1,1,1,1,1,1,1,1,1,1,1,1,1,1,1,1,1,1,1,1,1,1,1,1,1,1,1,1,1,1,1,1,1,1,1,1,1,1,1,1,1,1,1,1,1,1,1,1,1,1,0,0,0,0,0,0,0,0,0,0,0,0,0,0,0,0,0,0,0,0,0,0,0,0,0,0,0,0,0,0,0,0,0,0,0,0,0,0,0,0,0,0,0,0,0,0,0,0,0,0,0,0,0,0,0,0,0,0,0,0,0,0,0,0],"id":3,"left_children":[1,3,5,7,9,11,13,15,17,19,21,23,25,27,29,31,33,35,37,39,41,43,45,47,49,51,53,55,57,59,61,63,65,67,69,71,73,75,77,79,81,83,85,87,89,91,93,95,97,99,101,103,105,107,109,111,113,115,117,119,121,123,125,-1,-1,-1,-1,-1,-1,-1,-1,-1,-1,-1,-1,-1,-1,-1,-1,-1,-1,-1,-1,-1,-1,-1,-1,-1,-1,-1,-1,-1,-1,-1,-1,-1,-1,-1,-1,-1,-1,-1,-1,-1,-1,-1,-1,-1,-1,-1,-1,-1,-1,-1,-1,-1,-1,-1,-1,-1,-1,-1,-1,-1,-1,-1,-1],"loss_changes":[3.9197778E9,9.2329165E8,4.7610266E8,2.8987597E8,7.426079E8,2.312192E8,2.874332E8,1.9949466E8,1.0274816E7,2.4583578E8,1.5219072E8,3.373637E8,1.003433E8,1.9498496E8,4.142643E7,2.3179776E8,1.9500384E7,1.2766968E7,2.145432E6,6.1958144E8,1.1931494E8,6.318656E7,2.1054832E7,1.8231834E8,1.1811866E8,1.8324992E7,8.003856E6,1.5483418E8,6.3618944E7,2.3745184E7,1.215168E7,4.619923E7,1.3896192E8,1.55248E7,4.80092E6,9.60848E5,8.453504E6,9.434785E5,7.47484E5,8.514611E7,7.925184E7,1.878784E7,4.243917E7,4.1638656E7,1.432284E7,2.4033072E7,8.0876875E5,2.1455616E7,2.1314048E7,5.199181E7,5.9220736E7,6.406016E6,9.862624E6,6.170736E6,3.355368E6,9.124928E7,1.6868096E7,1.0423168E7,3.0909184E7,1.234544E7,4.261024E6,1.255248E7,5.06032E6,0E0,0E0,0E0,0E0,0E0,0E0,0E0,0E0,0E0,0E0,0E0,0E0,0E0,0E0,0E0,0E0,0E0,0E0,0E0,0E0,0E0,0E0,0E0,0E0,0E0,0E0,0E0,0E0,0E0,0E0,0E0,0E0,0E0,0E0,0E0,0E0,0E0,0E0,0E0,0E0,0E0,0E0,0E0,0E0,0E0,0E0,0E0,0E0,0E0,0E0,0E0,0E0,0E0,0E0,0E0,0E0,0E0,0E0,0E0,0E0,0E0,0E0,0E0,0E0],"parents":[2147483647,0,0,1,1,2,2,3,3,4,4,5,5,6,6,7,7,8,8,9,9,10,10,11,11,12,12,13,13,14,14,15,15,16,16,17,17,18,18,19,19,20,20,21,21,22,22,23,23,24,24,25,25,26,26,27,27,28,28,29,29,30,30,31,31,32,32,33,33,34,34,35,35,36,36,37,37,38,38,39,39,40,40,41,41,42,42,43,43,44,44,45,45,46,46,47,47,48,48,49,49,50,50,51,51,52,52,53,53,54,54,55,55,56,56,57,57,58,58,59,59,60,60,61,61,62,62],"right_children":[2,4,6,8,10,12,14,16,18,20,22,24,26,28,30,32,34,36,38,40,42,44,46,48,50,52,54,56,58,60,62,64,66,68,70,72,74,76,78,80,82,84,86,88,90,92,94,96,98,100,102,104,106,108,110,112,114,116,118,120,122,124,126,-1,-1,-1,-1,-1,-1,-1,-1,-1,-1,-1,-1,-1,-1,-1,-1,-1,-1,-1,-1,-1,-1,-1,-1,-1,-1,-1,-1,-1,-1,-1,-1,-1,-1,-1,-1,-1,-1,-1,-1,-1,-1,-1,-1,-1,-1,-1,-1,-1,-1,-1,-1,-1,-1,-1,-1,-1,-1,-1,-1,-1,-1,-1,-1],"split_conditions":[2.0195E3,1.1404E4,1.299875E4,7.89575E3,5.8395E3,1.05E1,5.913375E3,8.155E2,4.5E0,9.5E0,9.619375E3,3.5E0,4.8785E3,2.201375E3,2.0215E3,9.472625E3,2.293125E3,1.021575E4,8.325875E3,7.5E0,3.512125E3,2.7905E3,4.5E0,3.309125E3,8.5E0,2.5815E3,6.688E3,2.0205E3,3.5E0,9.371625E3,1.5E0,8.54E3,3.001E3,9.5E0,3.777875E3,8.544625E3,1.0396375E4,5.3175E2,2.5E0,1.5E0,8.5E0,2.0185E3,2.0185E3,1.39365E4,4.5E0,1.05E1,1.5E0,1.59325E3,6.691125E3,2.0205E3,4.5E0,9.084E3,1.050625E4,1.15E1,1.15E1,1.4013625E4,2.0215E3,2.0205E3,8.5E0,1.542625E3,2.0205E3,1.1908625E4,1.434575E4,2.852986E0,4.700676E0,7.448513E0,5.2451706E0,3.5507622E0,6.123324E0,2.88389E0,1.7491266E0,2.167063E0,1.1533997E0,4.1515656E0,2.066839E0,4.0343943E0,1.6376078E0,5.038403E-1,1.0986875E0,1.1519963E1,8.670833E0,3.6502275E0,6.1239734E0,1.1316269E1,9.946672E0,9.327638E0,6.473486E0,5.3855686E0,7.5107245E0,3.8426971E0,6.97009E-1,2.4510589E0,4.836511E0,1.8749793E0,5.763298E-1,4.973543E0,3.3798995E0,3.1582327E0,2.2223017E0,1.1441848E0,1.922303E0,3.2788632E0,1.8900477E0,3.271571E0,5.2346964E0,3.036176E0,4.448532E0,2.4576244E0,3.8824031E0,1.6228458E0,2.4858658E0,5.471883E0,8.662672E0,4.3519897E0,5.1521244E0,6.2589774E0,4.421278E0,2.2650394E0,3.8009748E0,3.2122762E0,1.9853729E0,1.3863162E0,2.0632105E0,4.8470907E0,3.0441315E0,2.7014306E0,3.4537964E0],"split_indices":[0,1,1,3,3,2,3,4,5,2,3,2,3,4,0,1,3,1,3,2,3,4,5,3,2,3,3,0,2,3,2,1,3,2,4,3,3,6,2,2,2,0,0,1,5,2,2,4,3,0,5,1,1,2,2,1,0,0,2,4,0,3,1,0,0,0,0,0,0,0,0,0,0,0,0,0,0,0,0,0,0,0,0,0,0,0,0,0,0,0,0,0,0,0,0,0,0,0,0,0,0,0,0,0,0,0,0,0,0,0,0,0,0,0,0,0,0,0,0,0,0,0,0,0,0,0,0],"split_type":[0,0,0,0,0,0,0,0,0,0,0,0,0,0,0,0,0,0,0,0,0,0,0,0,0,0,0,0,0,0,0,0,0,0,0,0,0,0,0,0,0,0,0,0,0,0,0,0,0,0,0,0,0,0,0,0,0,0,0,0,0,0,0,0,0,0,0,0,0,0,0,0,0,0,0,0,0,0,0,0,0,0,0,0,0,0,0,0,0,0,0,0,0,0,0,0,0,0,0,0,0,0,0,0,0,0,0,0,0,0,0,0,0,0,0,0,0,0,0,0,0,0,0,0,0,0,0],"sum_hessian":[4.2359E4,1.3896E4,2.8463E4,6.337E3,7.559E3,1.9351E4,9.112E3,5.649E3,6.88E2,5.714E3,1.845E3,1.6912E4,2.439E3,5.79E3,3.322E3,4.529E3,1.12E3,3.83E2,3.05E2,3.911E3,1.803E3,1.195E3,6.5E2,4.294E3,1.2618E4,1.613E3,8.26E2,3.721E3,2.069E3,1.935E3,1.387E3,1.582E3,2.947E3,7.24E2,3.96E2,1.81E2,2.02E2,2.1E1,2.84E2,2.595E3,1.316E3,1.253E3,5.5E2,1.01E3,1.85E2,5.36E2,1.14E2,1.823E3,2.471E3,9.353E3,3.265E3,1E3,6.13E2,3.22E2,5.04E2,9.14E2,2.807E3,6.14E2,1.455E3,9.81E2,9.54E2,4.23E2,9.64E2,5.02E2,1.08E3,1.669E3,1.278E3,6.58E2,6.6E1,2.25E2,1.71E2,2.9E1,1.52E2,1.05E2,9.7E1,7E0,1.4E1,7.4E1,2.1E2,3.08E2,2.287E3,7.09E2,6.07E2,6.81E2,5.72E2,2.65E2,2.85E2,6.24E2,3.86E2,1.35E2,5E1,3.89E2,1.47E2,1.3E1,1.01E2,1.568E3,2.55E2,1.168E3,1.303E3,3.352E3,6.001E3,2.017E3,1.248E3,5E1,9.5E2,1.9E2,4.23E2,1.59E2,1.63E2,1.9E2,3.14E2,4.54E2,4.6E2,1.562E3,1.245E3,9.9E1,5.15E2,9.48E2,5.07E2,6.77E2,3.04E2,4.83E2,4.71E2,2.55E2,1.68E2,4.51E2,5.13E2],"tree_param":{"num_deleted":"0","num_feature":"8","num_nodes":"127","size_leaf_vector":"0"}},{"base_weights":[8.0730414E2,1.2404958E3,5.957783E2,9.6007623E2,1.4754242E3,5.2150714E2,8.19104E2,1.0343446E3,3.4966037E2,1.6588286E3,9.440004E2,7.1818823E2,4.6223987E2,9.931167E2,5.6020416E2,1.1274108E3,6.573383E2,4.5819034E2,2.123232E2,1.5149368E3,1.9760874E3,1.1483324E3,5.370252E2,9.53477E2,5.4157166E2,3.3422104E2,6.6544354E2,1.34098E3,8.8651685E2,4.616723E2,6.9944214E2,8.191963E2,1.2925316E3,7.5489996E2,4.775159E2,2.640563E2,6.2998444E2,5.143949E2,1.8826039E2,1.7966962E3,9.571838E2,2.129212E3,1.5857566E3,1.2710219E3,7.238102E2,6.195138E2,1.4716945E2,9.919938E2,7.129092E2,6.2608966E2,4.3037192E2,2.3203624E2,3.893223E2,7.619162E2,4.498588E2,1.5694761E3,9.123077E2,9.581499E2,7.1939435E2,5.786358E2,3.403213E2,7.8060223E2,5.70359E2,5.6774994E2,9.3543896E2,1.4822585E3,1.0437931E3,7.066071E2,1.2186328E3,5.7390686E2,3.4808636E2,4.3131778E2,2.2953409E2,8.2620074E2,4.1132208E2,8.0334875E2,3.2599313E2,3.2741425E2,1.6810641E2,2.2927678E3,1.7291328E3,7.298903E2,1.2223425E3,2.251954E3,1.9794052E3,1.8527617E3,1.3145446E3,1.121716E3,1.5204619E3,8.9024536E2,1.932128E2,4.87767E2,9.624985E2,3.7325476E2,1.1469528E2,1.2554453E3,9.310069E2,9.0872754E2,5.7423346E2,7.403873E2,4.933083E2,2.8397217E2,5.413956E2,2.8417374E2,1.0968571E2,6.004916E2,3.4784314E2,6.377272E2,9.584107E2,3.7226855E2,6.286175E2,1.1835116E3,1.7470841E3,1.3836195E3,7.3499146E2,8.8396387E2,1.0543346E3,8.9217035E2,5.925002E2,8.86786E2,5.2443286E2,3.227144E2,5.5179474E2,9.103005E2,6.038858E2,5.396269E2,7.258892E2],"categories":[],"categories_nodes":[],"categories_segments":[],"categories_sizes":[],"default_left":[1,1,1,1,1,1,1,1,1,1,1,1,1,1,1,1,1,1,1,1,1,1,1,1,1,1,1,1,1,1,1,1,1,1,1,1,1,1,1,1,1,1,1,1,1,1,1,1,1,1,1,1,1,1,1,1,1,1,1,1,1,1,1,0,0,0,0,0,0,0,0,0,0,0,0,0,0,0,0,0,0,0,0,0,0,0,0,0,0,0,0,0,0,0,0,0,0,0,0,0,0,0,0,0,0,0,0,0,0,0,0,0,0,0,0,0,0,0,0,0,0,0,0,0,0,0,0],"id":4,"left_children":[1,3,5,7,9,11,13,15,17,19,21,23,25,27,29,31,33,35,37,39,41,43,45,47,49,51,53,55,57,59,61,63,65,67,69,71,73,75,77,79,81,83,85,87,89,91,93,95,97,99,101,103,105,107,109,111,113,115,117,119,121,123,125,-1,-1,-1,-1,-1,-1,-1,-1,-1,-1,-1,-1,-1,-1,-1,-1,-1,-1,-1,-1,-1,-1,-1,-1,-1,-1,-1,-1,-1,-1,-1,-1,-1,-1,-1,-1,-1,-1,-1,-1,-1,-1,-1,-1,-1,-1,-1,-1,-1,-1,-1,-1,-1,-1,-1,-1,-1,-1,-1,-1,-1,-1,-1,-1],"loss_changes":[3.8807613E9,9.140982E8,4.716964E8,2.8696934E8,7.3527296E8,2.4869069E8,3.19402E8,1.9749786E8,1.0172408E7,2.5351987E8,1.6087616E8,2.049774E8,4.268997E8,1.5626138E8,3.8873344E7,2.2948506E8,1.9306048E7,1.2640464E7,2.127379E6,6.064589E8,1.0121933E8,6.637312E7,2.0844112E7,1.8927232E7,2.6299776E7,5.663693E7,1.3162086E8,9.593037E7,3.825408E7,2.3591616E7,1.193792E7,4.573805E7,1.3757594E8,1.5375296E7,4.753128E6,9.51907E5,8.369912E6,9.35781E5,7.44243E5,8.217293E7,7.75177E7,1.8600448E7,3.3554816E7,3.557453E7,2.5614528E7,2.3796032E7,8.015115E5,2.81376E7,7.516128E6,2.3978048E7,1.9740976E7,2.2499648E7,5.711085E7,1.0632064E8,2.7006528E7,4.2284544E7,2.8065824E7,1.5294208E7,2.0957184E7,1.3765568E7,2.89372E6,1.6021312E7,1.806992E6,0E0,0E0,0E0,0E0,0E0,0E0,0E0,0E0,0E0,0E0,0E0,0E0,0E0,0E0,0E0,0E0,0E0,0E0,0E0,0E0,0E0,0E0,0E0,0E0,0E0,0E0,0E0,0E0,0E0,0E0,0E0,0E0,0E0,0E0,0E0,0E0,0E0,0E0,0E0,0E0,0E0,0E0,0E0,0E0,0E0,0E0,0E0,0E0,0E0,0E0,0E0,0E0,0E0,0E0,0E0,0E0,0E0,0E0,0E0,0E0,0E0,0E0,0E0,0E0],"parents":[2147483647,0,0,1,1,2,2,3,3,4,4,5,5,6,6,7,7,8,8,9,9,10,10,11,11,12,12,13,13,14,14,15,15,16,16,17,17,18,18,19,19,20,20,21,21,22,22,23,23,24,24,25,25,26,26,27,27,28,28,29,29,30,30,31,31,32,32,33,33,34,34,35,35,36,36,37,37,38,38,39,39,40,40,41,41,42,42,43,43,44,44,45,45,46,46,47,47,48,48,49,49,50,50,51,51,52,52,53,53,54,54,55,55,56,56,57,57,58,58,59,59,60,60,61,61,62,62],"right_children":[2,4,6,8,10,12,14,16,18,20,22,24,26,28,30,32,34,36,38,40,42,44,46,48,50,52,54,56,58,60,62,64,66,68,70,72,74,76,78,80,82,84,86,88,90,92,94,96,98,100,102,104,106,108,110,112,114,116,118,120,122,124,126,-1,-1,-1,-1,-1,-1,-1,-1,-1,-1,-1,-1,-1,-1,-1,-1,-1,-1,-1,-1,-1,-1,-1,-1,-1,-1,-1,-1,-1,-1,-1,-1,-1,-1,-1,-1,-1,-1,-1,-1,-1,-1,-1,-1,-1,-1,-1,-1,-1,-1,-1,-1,-1,-1,-1,-1,-1,-1,-1,-1,-1,-1,-1,-1],"split_conditions":[2.0195E3,1.1404E4,1.3424625E4,7.89575E3,5.6765E3,3.5E0,5.913375E3,8.155E2,4.5E0,9.5E0,9.619375E3,3.309125E3,8.5E0,2.0205E3,2.0215E3,9.472625E3,2.293125E3,1.021575E4,8.325875E3,7.5E0,3.512125E3,1.805E3,4.5E0,2.3155E3,7.910125E3,2.0205E3,4.52225E3,1.770625E3,2.242875E3,9.471375E3,1.1533375E4,8.54E3,3.001E3,9.5E0,3.777875E3,8.544625E3,1.0396375E4,5.3175E2,4.0475E2,1.5E0,8.5E0,2.0185E3,2.0185E3,1.39365E4,4.5E0,1.05E1,1.5E0,2.0205E3,9.47125E2,4.5E0,2.0215E3,4.5E0,4.5E0,1.05E1,1.15E1,1.39925E4,3.5E0,2.0215E3,3.5E0,1.5E0,1.15E1,2.5E0,1.6165625E4,2.8387496E0,4.6771946E0,7.4112926E0,5.2189655E0,3.5330355E0,6.093164E0,2.8695343E0,1.7404318E0,2.1565888E0,1.1476704E0,4.131004E0,2.0566103E0,4.0167437E0,1.6299657E0,1.6370711E0,8.4053206E-1,1.1463839E1,8.645664E0,3.6494515E0,6.1117125E0,1.125977E1,9.897025E0,9.263808E0,6.5727224E0,5.6085796E0,7.602309E0,4.4512267E0,9.66064E-1,2.438835E0,4.8124924E0,1.8662738E0,5.734764E-1,6.2772264E0,4.6550345E0,4.5436378E0,2.8711672E0,3.7019365E0,2.4665413E0,1.4198608E0,2.706978E0,1.4208686E0,5.4842854E-1,3.0024579E0,1.7392156E0,3.1886358E0,4.792053E0,1.8613428E0,3.1430874E0,5.9175577E0,8.73542E0,6.9180975E0,3.6749573E0,4.4198194E0,5.2716727E0,4.4608517E0,2.9625008E0,4.43393E0,2.6221642E0,1.6135719E0,2.7589736E0,4.551502E0,3.019429E0,2.6981344E0,3.629446E0],"split_indices":[0,1,1,3,3,2,3,4,5,2,3,3,2,0,0,1,3,1,3,2,3,4,5,4,3,0,3,4,4,3,3,1,3,2,4,3,3,6,6,2,2,0,0,1,5,2,2,0,3,5,0,5,2,2,2,1,2,0,2,2,2,2,1,0,0,0,0,0,0,0,0,0,0,0,0,0,0,0,0,0,0,0,0,0,0,0,0,0,0,0,0,0,0,0,0,0,0,0,0,0,0,0,0,0,0,0,0,0,0,0,0,0,0,0,0,0,0,0,0,0,0,0,0,0,0,0,0],"split_type":[0,0,0,0,0,0,0,0,0,0,0,0,0,0,0,0,0,0,0,0,0,0,0,0,0,0,0,0,0,0,0,0,0,0,0,0,0,0,0,0,0,0,0,0,0,0,0,0,0,0,0,0,0,0,0,0,0,0,0,0,0,0,0,0,0,0,0,0,0,0,0,0,0,0,0,0,0,0,0,0,0,0,0,0,0,0,0,0,0,0,0,0,0,0,0,0,0,0,0,0,0,0,0,0,0,0,0,0,0,0,0,0,0,0,0,0,0,0,0,0,0,0,0,0,0,0,0],"sum_hessian":[4.2359E4,1.3896E4,2.8463E4,6.337E3,7.559E3,2.1362E4,7.101E3,5.649E3,6.88E2,5.618E3,1.941E3,4.944E3,1.6418E4,4.245E3,2.856E3,4.529E3,1.12E3,3.83E2,3.05E2,3.869E3,1.749E3,1.291E3,6.5E2,2.118E3,2.826E3,1.0074E4,6.344E3,9.93E2,3.252E3,1.675E3,1.181E3,1.582E3,2.947E3,7.24E2,3.96E2,1.81E2,2.02E2,2.1E1,2.84E2,2.569E3,1.3E3,1.253E3,4.96E2,1E3,2.91E2,5.36E2,1.14E2,1.823E3,2.95E2,1.603E3,1.223E3,3.531E3,6.543E3,4.381E3,1.963E3,6.46E2,3.47E2,2.273E3,9.79E2,8.51E2,8.24E2,7.22E2,4.59E2,5.02E2,1.08E3,1.669E3,1.278E3,6.58E2,6.6E1,2.25E2,1.71E2,2.9E1,1.52E2,1.05E2,9.7E1,7E0,1.4E1,3.4E1,2.5E2,3.04E2,2.265E3,7.02E2,5.98E2,6.81E2,5.72E2,2.47E2,2.49E2,6.29E2,3.71E2,2.21E2,7E1,3.89E2,1.47E2,1.3E1,1.01E2,3.39E2,1.484E3,1.2E2,1.75E2,8.59E2,7.44E2,5.29E2,6.94E2,2.475E3,1.056E3,1.072E3,5.471E3,2.687E3,1.694E3,1.371E3,5.92E2,2.06E2,4.4E2,9.3E1,2.54E2,1.289E3,9.84E2,4.12E2,5.67E2,1.25E2,7.26E2,7.63E2,6.1E1,4.14E2,3.08E2,3.87E2,7.2E1],"tree_param":{"num_deleted":"0","num_feature":"8","num_nodes":"127","size_leaf_vector":"0"}},{"base_weights":[8.0327386E2,1.234304E3,5.9280347E2,9.5528406E2,1.4680597E3,5.0484012E2,7.7953394E2,1.029179E3,3.4793762E2,1.6444755E3,9.2110175E2,4.6368283E2,7.899173E2,9.1281793E2,5.470249E2,1.1217782E3,6.5406433E2,4.559241E2,2.1128813E2,1.5039666E3,1.9482594E3,1.1308435E3,5.343549E2,7.033911E2,3.8205905E2,9.337487E2,5.0825598E2,1.0484454E3,6.685095E2,4.5291583E2,6.778953E2,8.1510504E2,1.2860732E3,7.5113873E2,4.7513992E2,2.6275418E2,6.26865E2,5.120796E2,1.8732779E2,1.7847134E3,9.494316E2,2.1185828E3,1.5570908E3,1.2285468E3,5.9369904E2,4.0350394E2,7.8030615E2,9.4075977E2,5.276266E2,3.2541974E2,5.441601E2,1.0180627E3,7.947715E2,6.3205865E2,4.2806488E2,1.4033287E3,9.324317E2,9.3613196E2,5.5500934E2,5.6128674E2,3.410068E2,8.2009937E2,6.1471155E2,5.649168E2,9.307661E2,1.4748518E3,1.0385781E3,6.61947E2,9.9879987E2,5.7105005E2,3.4635602E2,4.292331E2,2.283939E2,8.221087E2,4.0928644E2,7.998341E2,3.2447183E2,9.944162E1,2.1767914E2,2.2811562E3,1.7168876E3,7.227499E2,1.2125806E3,2.240711E3,1.9695254E3,1.8472351E3,1.2817919E3,1.0663264E3,1.487356E3,7.603065E2,1.3777135E2,7.896338E2,3.0804343E2,9.058564E2,5.5877716E2,9.846899E2,6.687321E2,6.251755E2,4.3992172E2,2.265472E2,3.8060037E2,6.4962537E2,3.7332495E2,6.4640875E2,1.0369232E3,5.9964746E2,8.8079486E2,4.872329E2,7.69498E2,3.2110318E2,4.915621E2,1.0840762E3,1.7153822E3,8.617722E2,1.0203196E3,1.2395725E3,8.755114E2,4.4836017E2,7.5314923E2,6.363571E2,3.9256873E2,2.7421088E2,4.0877847E2,9.602726E2,6.029132E2,5.346732E2,6.838995E2],"categories":[],"categories_nodes":[],"categories_segments":[],"categories_sizes":[],"default_left":[1,1,1,1,1,1,1,1,1,1,1,1,1,1,1,1,1,1,1,1,1,1,1,1,1,1,1,1,1,1,1,1,1,1,1,1,1,1,1,1,1,1,1,1,1,1,1,1,1,1,1,1,1,1,1,1,1,1,1,1,1,1,1,0,0,0,0,0,0,0,0,0,0,0,0,0,0,0,0,0,0,0,0,0,0,0,0,0,0,0,0,0,0,0,0,0,0,0,0,0,0,0,0,0,0,0,0,0,0,0,0,0,0,0,0,0,0,0,0,0,0,0,0,0,0,0,0],"id":5,"left_children":[1,3,5,7,9,11,13,15,17,19,21,23,25,27,29,31,33,35,37,39,41,43,45,47,49,51,53,55,57,59,61,63,65,67,69,71,73,75,77,79,81,83,85,87,89,91,93,95,97,99,101,103,105,107,109,111,113,115,117,119,121,123,125,-1,-1,-1,-1,-1,-1,-1,-1,-1,-1,-1,-1,-1,-1,-1,-1,-1,-1,-1,-1,-1,-1,-1,-1,-1,-1,-1,-1,-1,-1,-1,-1,-1,-1,-1,-1,-1,-1,-1,-1,-1,-1,-1,-1,-1,-1,-1,-1,-1,-1,-1,-1,-1,-1,-1,-1,-1,-1,-1,-1,-1,-1,-1,-1],"loss_changes":[3.842128E9,9.049928E8,4.671406E8,2.8409037E8,7.279647E8,2.2669107E8,2.8191027E8,1.9552051E8,1.007076E7,2.4101171E8,1.4913754E8,3.3064934E8,9.837402E7,1.9118336E8,4.061933E7,2.2719488E8,1.9113696E7,1.2515216E7,2.109435E6,6.073416E8,1.1689267E8,6.203763E7,2.0636272E7,1.7869517E8,1.1568166E8,1.8103168E7,7.939776E6,1.519314E8,6.235712E7,2.3287808E7,1.1967104E7,4.5281536E7,1.3620429E8,1.53536E7,4.705832E6,9.43053E5,8.287136E6,9.28146E5,7.38581E5,8.349491E7,7.76841E7,1.8415104E7,4.164416E7,4.0859904E7,1.4023996E7,1.5496048E7,5.751744E6,2.1162624E7,2.0857088E7,5.094771E7,5.86016E7,6.346304E6,9.777984E6,6.05432E6,3.272008E6,8.929626E7,1.6558592E7,1.0227456E7,3.0429728E7,1.2187936E7,4.211072E6,1.2329152E7,4.978176E6,0E0,0E0,0E0,0E0,0E0,0E0,0E0,0E0,0E0,0E0,0E0,0E0,0E0,0E0,0E0,0E0,0E0,0E0,0E0,0E0,0E0,0E0,0E0,0E0,0E0,0E0,0E0,0E0,0E0,0E0,0E0,0E0,0E0,0E0,0E0,0E0,0E0,0E0,0E0,0E0,0E0,0E0,0E0,0E0,0E0,0E0,0E0,0E0,0E0,0E0,0E0,0E0,0E0,0E0,0E0,0E0,0E0,0E0,0E0,0E0,0E0,0E0,0E0,0E0],"parents":[2147483647,0,0,1,1,2,2,3,3,4,4,5,5,6,6,7,7,8,8,9,9,10,10,11,11,12,12,13,13,14,14,15,15,16,16,17,17,18,18,19,19,20,20,21,21,22,22,23,23,24,24,25,25,26,26,27,27,28,28,29,29,30,30,31,31,32,32,33,33,34,34,35,35,36,36,37,37,38,38,39,39,40,40,41,41,42,42,43,43,44,44,45,45,46,46,47,47,48,48,49,49,50,50,51,51,52,52,53,53,54,54,55,55,56,56,57,57,58,58,59,59,60,60,61,61,62,62],"right_children":[2,4,6,8,10,12,14,16,18,20,22,24,26,28,30,32,34,36,38,40,42,44,46,48,50,52,54,56,58,60,62,64,66,68,70,72,74,76,78,80,82,84,86,88,90,92,94,96,98,100,102,104,106,108,110,112,114,116,118,120,122,124,126,-1,-1,-1,-1,-1,-1,-1,-1,-1,-1,-1,-1,-1,-1,-1,-1,-1,-1,-1,-1,-1,-1,-1,-1,-1,-1,-1,-1,-1,-1,-1,-1,-1,-1,-1,-1,-1,-1,-1,-1,-1,-1,-1,-1,-1,-1,-1,-1,-1,-1,-1,-1,-1,-1,-1,-1,-1,-1,-1,-1,-1,-1,-1,-1],"split_conditions":[2.0195E3,1.1404E4,1.299875E4,7.89575E3,5.8395E3,1.05E1,5.913375E3,8.155E2,4.5E0,9.5E0,9.619375E3,3.5E0,4.8785E3,2.201375E3,2.0215E3,9.472625E3,2.293125E3,1.021575E4,8.325875E3,7.5E0,3.512125E3,2.7905E3,1.39035E4,3.3175E3,8.5E0,2.5815E3,6.688E3,2.0205E3,3.5E0,9.371625E3,1.5E0,8.54E3,3.001E3,1.0799625E4,3.777875E3,8.544625E3,1.0396375E4,5.3175E2,2.5E0,1.5E0,8.5E0,2.0185E3,2.0185E3,1.39365E4,4.5E0,7.5E0,6.93E2,1.59325E3,6.691125E3,2.0205E3,4.5E0,9.084E3,1.050625E4,1.15E1,1.15E1,1.4013625E4,2.0215E3,2.0205E3,8.5E0,1.542625E3,2.0205E3,1.1908625E4,1.434575E4,2.824584E0,4.6538305E0,7.374259E0,5.1928906E0,3.309735E0,4.993999E0,2.8552501E0,1.73178E0,2.1461654E0,1.1419696E0,4.1105433E0,2.0464323E0,3.9991705E0,1.6223592E0,4.972081E-1,1.0883957E0,1.1405781E1,8.584437E0,3.6137493E0,6.062903E0,1.1203554E1,9.847627E0,9.236176E0,6.4089594E0,5.331632E0,7.4367795E0,3.8015325E0,6.888567E-1,3.9481688E0,1.540217E0,4.5292816E0,2.7938857E0,4.9234495E0,3.3436606E0,3.1258774E0,2.1996086E0,1.132736E0,1.9030018E0,3.2481267E0,1.8666247E0,3.2320437E0,5.184616E0,2.9982371E0,4.403974E0,2.4361644E0,3.8474898E0,1.6055158E0,2.4578104E0,5.4203806E0,8.576911E0,4.308861E0,5.101598E0,6.1978626E0,4.377557E0,2.2418008E0,3.765746E0,3.1817856E0,1.9628435E0,1.3710544E0,2.0438924E0,4.801363E0,3.014566E0,2.673366E0,3.4194973E0],"split_indices":[0,1,1,3,3,2,3,4,5,2,3,2,3,4,0,1,3,1,3,2,3,4,1,3,2,3,3,0,2,3,2,1,3,1,4,3,3,6,2,2,2,0,0,1,5,7,4,4,3,0,5,1,1,2,2,1,0,0,2,4,0,3,1,0,0,0,0,0,0,0,0,0,0,0,0,0,0,0,0,0,0,0,0,0,0,0,0,0,0,0,0,0,0,0,0,0,0,0,0,0,0,0,0,0,0,0,0,0,0,0,0,0,0,0,0,0,0,0,0,0,0,0,0,0,0,0,0],"split_type":[0,0,0,0,0,0,0,0,0,0,0,0,0,0,0,0,0,0,0,0,0,0,0,0,0,0,0,0,0,0,0,0,0,0,0,0,0,0,0,0,0,0,0,0,0,0,0,0,0,0,0,0,0,0,0,0,0,0,0,0,0,0,0,0,0,0,0,0,0,0,0,0,0,0,0,0,0,0,0,0,0,0,0,0,0,0,0,0,0,0,0,0,0,0,0,0,0,0,0,0,0,0,0,0,0,0,0,0,0,0,0,0,0,0,0,0,0,0,0,0,0,0,0,0,0,0,0],"sum_hessian":[4.2359E4,1.3896E4,2.8463E4,6.337E3,7.559E3,1.9351E4,9.112E3,5.649E3,6.88E2,5.714E3,1.845E3,1.6912E4,2.439E3,5.79E3,3.322E3,4.529E3,1.12E3,3.83E2,3.05E2,3.911E3,1.803E3,1.195E3,6.5E2,4.294E3,1.2618E4,1.613E3,8.26E2,3.721E3,2.069E3,1.935E3,1.387E3,1.582E3,2.947E3,7.24E2,3.96E2,1.81E2,2.02E2,2.1E1,2.84E2,2.595E3,1.316E3,1.253E3,5.5E2,1.01E3,1.85E2,4.26E2,2.24E2,1.825E3,2.469E3,9.353E3,3.265E3,1E3,6.13E2,3.22E2,5.04E2,9.14E2,2.807E3,6.14E2,1.455E3,9.81E2,9.54E2,4.23E2,9.64E2,5.02E2,1.08E3,1.669E3,1.278E3,5.35E2,1.89E2,2.25E2,1.71E2,2.9E1,1.52E2,1.05E2,9.7E1,7E0,1.4E1,7.4E1,2.1E2,3.08E2,2.287E3,7.09E2,6.07E2,6.81E2,5.72E2,2.65E2,2.85E2,6.24E2,3.86E2,1.35E2,5E1,8.3E1,3.43E2,1.41E2,8.3E1,1.569E3,2.56E2,1.166E3,1.303E3,3.352E3,6.001E3,2.017E3,1.248E3,5E1,9.5E2,1.9E2,4.23E2,1.59E2,1.63E2,1.9E2,3.14E2,4.54E2,4.6E2,1.562E3,1.245E3,9.9E1,5.15E2,9.48E2,5.07E2,6.77E2,3.04E2,4.83E2,4.71E2,2.55E2,1.68E2,4.51E2,5.13E2],"tree_param":{"num_deleted":"0","num_feature":"8","num_nodes":"127","size_leaf_vector":"0"}},{"base_weights":[7.9926355E2,1.228143E3,5.898434E2,9.5051544E2,1.460732E3,5.162795E2,8.110423E2,1.024039E3,3.462221E2,1.6423219E3,9.3456635E2,7.11019E2,4.5759732E2,9.838233E2,5.5532556E2,1.1161737E3,6.5080554E2,4.536691E2,2.1025523E2,1.4998572E3,1.956434E3,1.1368339E3,5.317028E2,9.440063E2,5.3613E2,3.308477E2,6.5878644E2,1.3298568E3,8.779092E2,4.5805002E2,6.931291E2,8.1103424E2,1.2796471E3,7.4739453E2,4.727758E2,2.6145847E2,6.2376105E2,5.097747E2,1.863967E2,1.7788057E3,9.4766864E2,2.1080066E3,1.5700586E3,1.2584469E3,7.1604114E2,6.1358875E2,1.4470763E2,9.8216797E2,7.056588E2,6.1985815E2,4.259698E2,2.2966943E2,3.8540616E2,7.560293E2,4.4822546E2,1.5583108E3,9.032643E2,9.487631E2,7.1279626E2,5.738543E2,3.3691794E2,7.7389154E2,5.643337E2,5.6209784E2,9.261166E2,1.4643859E3,1.0292671E3,6.993555E2,1.2087418E3,5.6820746E2,3.4463434E2,4.2715845E2,2.2725941E2,8.18037E2,4.0726093E2,7.9633484E2,3.229576E2,3.2476666E2,1.6635947E2,2.2699731E3,1.7119103E3,7.2263745E2,1.2101882E3,2.2295237E3,1.9596951E3,1.8343363E3,1.3016149E3,1.110593E3,1.5054617E3,8.809707E2,1.9026077E2,4.8276218E2,9.5418866E2,3.700916E2,1.12353874E2,1.244293E3,9.214914E2,9.004481E2,5.6773175E2,7.3349927E2,4.8784314E2,2.8040277E2,5.363648E2,2.8151486E2,1.0800535E2,5.9545667E2,3.441471E2,6.3285376E2,9.511757E2,3.7113632E2,6.25834E2,1.1722284E3,1.7372167E3,1.3704143E3,7.275177E2,8.753357E2,1.0439333E3,8.8335333E2,5.8730615E2,8.793356E2,5.2063293E2,3.1941223E2,5.471996E2,9.0245386E2,5.978903E2,5.337601E2,7.191042E2],"categories":[],"categories_nodes":[],"categories_segments":[],"categories_sizes":[],"default_left":[1,1,1,1,1,1,1,1,1,1,1,1,1,1,1,1,1,1,1,1,1,1,1,1,1,1,1,1,1,1,1,1,1,1,1,1,1,1,1,1,1,1,1,1,1,1,1,1,1,1,1,1,1,1,1,1,1,1,1,1,1,1,1,0,0,0,0,0,0,0,0,0,0,0,0,0,0,0,0,0,0,0,0,0,0,0,0,0,0,0,0,0,0,0,0,0,0,0,0,0,0,0,0,0,0,0,0,0,0,0,0,0,0,0,0,0,0,0,0,0,0,0,0,0,0,0,0],"id":6,"left_children":[1,3,5,7,9,11,13,15,17,19,21,23,25,27,29,31,33,35,37,39,41,43,45,47,49,51,53,55,57,59,61,63,65,67,69,71,73,75,77,79,81,83,85,87,89,91,93,95,97,99,101,103,105,107,109,111,113,115,117,119,121,123,125,-1,-1,-1,-1,-1,-1,-1,-1,-1,-1,-1,-1,-1,-1,-1,-1,-1,-1,-1,-1,-1,-1,-1,-1,-1,-1,-1,-1,-1,-1,-1,-1,-1,-1,-1,-1,-1,-1,-1,-1,-1,-1,-1,-1,-1,-1,-1,-1,-1,-1,-1,-1,-1,-1,-1,-1,-1,-1,-1,-1,-1,-1,-1,-1],"loss_changes":[3.8038794E9,8.9598566E8,4.627548E8,2.812411E8,7.207967E8,2.4380518E8,3.132411E8,1.9356467E8,9.970376E6,2.4851456E8,1.5764173E8,2.0098765E8,4.184768E8,1.5411789E8,3.8101056E7,2.2492774E8,1.8923072E7,1.2391208E7,2.091685E6,5.944187E8,9.917747E7,6.521549E7,2.0541056E7,1.8580608E7,2.5810752E7,5.552691E7,1.2957875E8,9.51721E7,3.730995E7,2.3415104E7,1.187904E7,4.482944E7,1.348526E8,1.522256E7,4.658992E6,9.34278E5,8.205184E6,9.20573E5,7.36149E5,8.055552E7,7.598221E7,1.8230784E7,3.2871296E7,3.4886784E7,2.5153696E7,2.3467808E7,7.97001E5,2.7863936E7,7.441344E6,2.370592E7,1.951912E7,2.224848E7,5.6508544E7,1.0369536E8,2.7246944E7,4.244621E7,2.7573792E7,1.4942208E7,2.0434944E7,1.3507936E7,2.862152E6,1.5865088E7,1.792848E6,0E0,0E0,0E0,0E0,0E0,0E0,0E0,0E0,0E0,0E0,0E0,0E0,0E0,0E0,0E0,0E0,0E0,0E0,0E0,0E0,0E0,0E0,0E0,0E0,0E0,0E0,0E0,0E0,0E0,0E0,0E0,0E0,0E0,0E0,0E0,0E0,0E0,0E0,0E0,0E0,0E0,0E0,0E0,0E0,0E0,0E0,0E0,0E0,0E0,0E0,0E0,0E0,0E0,0E0,0E0,0E0,0E0,0E0,0E0,0E0,0E0,0E0,0E0,0E0],"parents":[2147483647,0,0,1,1,2,2,3,3,4,4,5,5,6,6,7,7,8,8,9,9,10,10,11,11,12,12,13,13,14,14,15,15,16,16,17,17,18,18,19,19,20,20,21,21,22,22,23,23,24,24,25,25,26,26,27,27,28,28,29,29,30,30,31,31,32,32,33,33,34,34,35,35,36,36,37,37,38,38,39,39,40,40,41,41,42,42,43,43,44,44,45,45,46,46,47,47,48,48,49,49,50,50,51,51,52,52,53,53,54,54,55,55,56,56,57,57,58,58,59,59,60,60,61,61,62,62],"right_children":[2,4,6,8,10,12,14,16,18,20,22,24,26,28,30,32,34,36,38,40,42,44,46,48,50,52,54,56,58,60,62,64,66,68,70,72,74,76,78,80,82,84,86,88,90,92,94,96,98,100,102,104,106,108,110,112,114,116,118,120,122,124,126,-1,-1,-1,-1,-1,-1,-1,-1,-1,-1,-1,-1,-1,-1,-1,-1,-1,-1,-1,-1,-1,-1,-1,-1,-1,-1,-1,-1,-1,-1,-1,-1,-1,-1,-1,-1,-1,-1,-1,-1,-1,-1,-1,-1,-1,-1,-1,-1,-1,-1,-1,-1,-1,-1,-1,-1,-1,-1,-1,-1,-1,-1,-1,-1],"split_conditions":[2.0195E3,1.1404E4,1.3424625E4,7.89575E3,5.6765E3,3.5E0,5.89575E3,8.155E2,4.5E0,9.5E0,9.619375E3,3.309125E3,8.5E0,2.0205E3,2.0215E3,9.472625E3,2.293125E3,1.021575E4,8.325875E3,7.5E0,3.512125E3,1.805E3,4.5E0,2.3155E3,7.910125E3,2.0205E3,4.449125E3,1.770625E3,2.242875E3,9.471375E3,1.1533375E4,8.54E3,3.048625E3,9.5E0,3.777875E3,8.544625E3,1.0396375E4,5.3175E2,4.0475E2,1.5E0,8.5E0,2.0185E3,2.0185E3,1.39365E4,4.5E0,1.05E1,1.5E0,2.0205E3,9.47125E2,4.5E0,2.0215E3,4.5E0,4.5E0,1.05E1,1.15E1,1.39925E4,3.5E0,2.0215E3,3.5E0,1.5E0,1.15E1,2.5E0,1.6165625E4,2.8104892E0,4.630583E0,7.321929E0,5.146335E0,3.4967775E0,6.043709E0,2.8410373E0,1.7231717E0,2.1357923E0,1.1362971E0,4.0901847E0,2.0363045E0,3.9816742E0,1.614788E0,1.6238333E0,8.317973E-1,1.1349866E1,8.559551E0,3.613187E0,6.050941E0,1.1147618E1,9.798475E0,9.171681E0,6.5080743E0,5.552965E0,7.527308E0,4.4048533E0,9.5130384E-1,2.4138107E0,4.770943E0,1.850458E0,5.6176937E-1,6.2214646E0,4.6074567E0,4.5022407E0,2.8386586E0,3.6674962E0,2.4392157E0,1.4020138E0,2.681824E0,1.4075743E0,5.400267E-1,2.9772832E0,1.7207354E0,3.1642687E0,4.7558784E0,1.8556815E0,3.12917E0,5.8611417E0,8.686083E0,6.8520713E0,3.6375885E0,4.3766785E0,5.2196665E0,4.4167666E0,2.9365306E0,4.396678E0,2.6031647E0,1.5970612E0,2.735998E0,4.512269E0,2.9894516E0,2.6688004E0,3.595521E0],"split_indices":[0,1,1,3,3,2,3,4,5,2,3,3,2,0,0,1,3,1,3,2,3,4,5,4,3,0,3,4,4,3,3,1,3,2,4,3,3,6,6,2,2,0,0,1,5,2,2,0,3,5,0,5,2,2,2,1,2,0,2,2,2,2,1,0,0,0,0,0,0,0,0,0,0,0,0,0,0,0,0,0,0,0,0,0,0,0,0,0,0,0,0,0,0,0,0,0,0,0,0,0,0,0,0,0,0,0,0,0,0,0,0,0,0,0,0,0,0,0,0,0,0,0,0,0,0,0,0],"split_type":[0,0,0,0,0,0,0,0,0,0,0,0,0,0,0,0,0,0,0,0,0,0,0,0,0,0,0,0,0,0,0,0,0,0,0,0,0,0,0,0,0,0,0,0,0,0,0,0,0,0,0,0,0,0,0,0,0,0,0,0,0,0,0,0,0,0,0,0,0,0,0,0,0,0,0,0,0,0,0,0,0,0,0,0,0,0,0,0,0,0,0,0,0,0,0,0,0,0,0,0,0,0,0,0,0,0,0,0,0,0,0,0,0,0,0,0,0,0,0,0,0,0,0,0,0,0,0],"sum_hessian":[4.2359E4,1.3896E4,2.8463E4,6.337E3,7.559E3,2.1362E4,7.101E3,5.649E3,6.88E2,5.618E3,1.941E3,4.944E3,1.6418E4,4.236E3,2.865E3,4.529E3,1.12E3,3.83E2,3.05E2,3.869E3,1.749E3,1.291E3,6.5E2,2.118E3,2.826E3,1.0074E4,6.344E3,9.9E2,3.246E3,1.682E3,1.183E3,1.582E3,2.947E3,7.24E2,3.96E2,1.81E2,2.02E2,2.1E1,2.84E2,2.569E3,1.3E3,1.253E3,4.96E2,1E3,2.91E2,5.36E2,1.14E2,1.823E3,2.95E2,1.603E3,1.223E3,3.531E3,6.543E3,4.338E3,2.006E3,6.43E2,3.47E2,2.268E3,9.78E2,8.58E2,8.24E2,7.24E2,4.59E2,5.02E2,1.08E3,1.693E3,1.254E3,6.58E2,6.6E1,2.25E2,1.71E2,2.9E1,1.52E2,1.05E2,9.7E1,7E0,1.4E1,3.4E1,2.5E2,3.04E2,2.265E3,7.02E2,5.98E2,6.81E2,5.72E2,2.47E2,2.49E2,6.29E2,3.71E2,2.21E2,7E1,3.89E2,1.47E2,1.3E1,1.01E2,3.39E2,1.484E3,1.2E2,1.75E2,8.59E2,7.44E2,5.29E2,6.94E2,2.475E3,1.056E3,1.072E3,5.471E3,2.662E3,1.676E3,1.401E3,6.05E2,2.06E2,4.37E2,9.3E1,2.54E2,1.286E3,9.82E2,4.12E2,5.66E2,1.25E2,7.33E2,7.63E2,6.1E1,4.16E2,3.08E2,3.87E2,7.2E1],"tree_param":{"num_deleted":"0","num_feature":"8","num_nodes":"127","size_leaf_vector":"0"}},{"base_weights":[7.952734E2,1.2220127E3,5.868982E2,9.45771E2,1.4534409E3,4.997667E2,7.718627E2,1.01892474E3,3.4451633E2,1.6281083E3,9.11904E2,4.5901447E2,7.8203827E2,9.038617E2,5.415954E2,1.1105973E3,6.475641E2,4.5142523E2,2.0923029E2,1.488985E3,1.9288964E3,1.1195295E3,5.290591E2,6.963253E2,3.7820703E2,9.244592E2,5.0313928E2,1.038162E3,6.619441E2,4.484069E2,6.711857E2,8.0698376E2,1.2732532E3,7.4367065E2,4.704234E2,2.6016916E2,6.206724E2,5.0748022E2,1.8547334E2,1.7669447E3,9.399551E2,2.0974834E3,1.5417148E3,1.2163395E3,5.873019E2,3.9912048E2,7.7330225E2,9.3132275E2,5.223166E2,3.2215527E2,5.386265E2,1.00822974E3,7.863832E2,6.2642523E2,4.232888E2,1.389703E3,9.232409E2,9.268996E2,5.495749E2,5.557257E2,3.375844E2,8.122944E2,6.084902E2,5.5929297E2,9.214903E2,1.4601644E3,1.0282062E3,6.5495844E2,9.900186E2,5.6537897E2,3.4292117E2,4.2509384E2,2.2613054E2,8.1398535E2,4.052454E2,7.928509E2,3.214505E2,9.813033E1,2.1564041E2,2.2585466E3,1.6997804E3,7.15527E2,1.200488E3,2.2183926E3,1.9499137E3,1.8291234E3,1.2690142E3,1.0556469E3,1.4727129E3,7.5216046E2,1.3616335E2,7.822111E2,3.044149E2,8.9809186E2,5.531424E2,9.748665E2,6.616923E2,6.189563E2,4.354294E2,2.2428061E2,3.7677896E2,6.435391E2,3.6868887E2,6.3857745E2,1.0269932E3,6.2035986E2,8.869861E2,4.829679E2,7.625639E2,3.176601E2,4.8599286E2,1.0738768E3,1.6984042E3,8.5323505E2,1.0103162E3,1.227468E3,8.6685364E2,4.4375836E2,7.461699E2,6.3031104E2,3.881042E2,2.711904E2,4.0495117E2,9.5121014E2,5.9705927E2,5.291154E2,6.771067E2],"categories":[],"categories_nodes":[],"categories_segments":[],"categories_sizes":[],"default_left":[1,1,1,1,1,1,1,1,1,1,1,1,1,1,1,1,1,1,1,1,1,1,1,1,1,1,1,1,1,1,1,1,1,1,1,1,1,1,1,1,1,1,1,1,1,1,1,1,1,1,1,1,1,1,1,1,1,1,1,1,1,1,1,0,0,0,0,0,0,0,0,0,0,0,0,0,0,0,0,0,0,0,0,0,0,0,0,0,0,0,0,0,0,0,0,0,0,0,0,0,0,0,0,0,0,0,0,0,0,0,0,0,0,0,0,0,0,0,0,0,0,0,0,0,0,0,0],"id":7,"left_children":[1,3,5,7,9,11,13,15,17,19,21,23,25,27,29,31,33,35,37,39,41,43,45,47,49,51,53,55,57,59,61,63,65,67,69,71,73,75,77,79,81,83,85,87,89,91,93,95,97,99,101,103,105,107,109,111,113,115,117,119,121,123,125,-1,-1,-1,-1,-1,-1,-1,-1,-1,-1,-1,-1,-1,-1,-1,-1,-1,-1,-1,-1,-1,-1,-1,-1,-1,-1,-1,-1,-1,-1,-1,-1,-1,-1,-1,-1,-1,-1,-1,-1,-1,-1,-1,-1,-1,-1,-1,-1,-1,-1,-1,-1,-1,-1,-1,-1,-1,-1,-1,-1,-1,-1,-1,-1],"loss_changes":[3.766016E9,8.870605E8,4.5834752E8,2.7842048E8,7.136072E8,2.22251E8,2.7649997E8,1.9162675E8,9.870752E6,2.3628186E8,1.4614323E8,3.240686E8,9.645427E7,1.874601E8,3.982867E7,2.2268467E8,1.8734528E7,1.2268424E7,2.074041E6,5.9534234E8,1.1452006E8,6.090944E7,2.035192E7,1.7514304E8,1.1329395E8,1.787584E7,7.876192E6,1.4908365E8,6.1120384E7,2.2837888E7,1.1785152E7,4.438195E7,1.3352294E8,1.5195776E7,4.612616E6,9.25588E5,8.124048E6,9.130615E5,7.29781E5,8.187597E7,7.61472E7,1.8049024E7,4.0864256E7,4.009587E7,1.373116E7,1.52538E7,5.6848E6,2.0793472E7,2.0470528E7,4.9924544E7,5.799104E7,6.287104E6,9.705024E6,5.939936E6,3.190408E6,8.738496E7,1.6254976E7,1.0035456E7,2.9958016E7,1.2032448E7,4.161664E6,1.2109504E7,4.897504E6,0E0,0E0,0E0,0E0,0E0,0E0,0E0,0E0,0E0,0E0,0E0,0E0,0E0,0E0,0E0,0E0,0E0,0E0,0E0,0E0,0E0,0E0,0E0,0E0,0E0,0E0,0E0,0E0,0E0,0E0,0E0,0E0,0E0,0E0,0E0,0E0,0E0,0E0,0E0,0E0,0E0,0E0,0E0,0E0,0E0,0E0,0E0,0E0,0E0,0E0,0E0,0E0,0E0,0E0,0E0,0E0,0E0,0E0,0E0,0E0,0E0,0E0,0E0,0E0],"parents":[2147483647,0,0,1,1,2,2,3,3,4,4,5,5,6,6,7,7,8,8,9,9,10,10,11,11,12,12,13,13,14,14,15,15,16,16,17,17,18,18,19,19,20,20,21,21,22,22,23,23,24,24,25,25,26,26,27,27,28,28,29,29,30,30,31,31,32,32,33,33,34,34,35,35,36,36,37,37,38,38,39,39,40,40,41,41,42,42,43,43,44,44,45,45,46,46,47,47,48,48,49,49,50,50,51,51,52,52,53,53,54,54,55,55,56,56,57,57,58,58,59,59,60,60,61,61,62,62],"right_children":[2,4,6,8,10,12,14,16,18,20,22,24,26,28,30,32,34,36,38,40,42,44,46,48,50,52,54,56,58,60,62,64,66,68,70,72,74,76,78,80,82,84,86,88,90,92,94,96,98,100,102,104,106,108,110,112,114,116,118,120,122,124,126,-1,-1,-1,-1,-1,-1,-1,-1,-1,-1,-1,-1,-1,-1,-1,-1,-1,-1,-1,-1,-1,-1,-1,-1,-1,-1,-1,-1,-1,-1,-1,-1,-1,-1,-1,-1,-1,-1,-1,-1,-1,-1,-1,-1,-1,-1,-1,-1,-1,-1,-1,-1,-1,-1,-1,-1,-1,-1,-1,-1,-1,-1,-1,-1],"split_conditions":[2.0195E3,1.1404E4,1.299875E4,7.89575E3,5.8395E3,1.05E1,5.913375E3,8.155E2,4.5E0,9.5E0,9.619375E3,3.5E0,4.8785E3,2.201375E3,2.0215E3,9.472625E3,2.293125E3,1.021575E4,8.325875E3,7.5E0,3.512125E3,2.7905E3,1.39035E4,3.3175E3,8.5E0,2.5815E3,6.688E3,2.0205E3,3.5E0,9.371625E3,1.5E0,8.54E3,3.001E3,1.0799625E4,3.777875E3,8.544625E3,1.0396375E4,5.3175E2,2.5E0,1.5E0,8.5E0,2.0185E3,2.0185E3,1.39365E4,4.5E0,7.5E0,6.93E2,1.59325E3,6.691125E3,2.0205E3,4.5E0,9.084E3,1.077E4,1.15E1,1.15E1,1.4013625E4,2.0215E3,2.0205E3,8.5E0,1.542625E3,2.0205E3,1.1908625E4,1.434575E4,2.7964647E0,4.6074514E0,7.300822E0,5.141031E0,3.2747922E0,4.950093E0,2.8268948E0,1.7146058E0,2.1254692E0,1.1306527E0,4.0699267E0,2.026227E0,3.9642544E0,1.6072525E0,4.9065167E-1,1.078202E0,1.1292733E1,8.498901E0,3.5776348E0,6.00244E0,1.1091963E1,9.749568E0,9.145617E0,6.345071E0,5.278234E0,7.3635645E0,3.7608023E0,6.808167E-1,3.9110556E0,1.5220743E0,4.490459E0,2.765712E0,4.8743324E0,3.3084614E0,3.0947814E0,2.177147E0,1.121403E0,1.8838948E0,3.2176955E0,1.8434443E0,3.1928873E0,5.134966E0,3.1017992E0,4.4349303E0,2.4148395E0,3.8128195E0,1.5883005E0,2.4299643E0,5.369384E0,8.492021E0,4.2661753E0,5.051581E0,6.13734E0,4.334268E0,2.2187917E0,3.7308495E0,3.151555E0,1.9405209E0,1.355952E0,2.0247557E0,4.7560506E0,2.9852962E0,2.645577E0,3.3855333E0],"split_indices":[0,1,1,3,3,2,3,4,5,2,3,2,3,4,0,1,3,1,3,2,3,4,1,3,2,3,3,0,2,3,2,1,3,1,4,3,3,6,2,2,2,0,0,1,5,7,4,4,3,0,5,1,1,2,2,1,0,0,2,4,0,3,1,0,0,0,0,0,0,0,0,0,0,0,0,0,0,0,0,0,0,0,0,0,0,0,0,0,0,0,0,0,0,0,0,0,0,0,0,0,0,0,0,0,0,0,0,0,0,0,0,0,0,0,0,0,0,0,0,0,0,0,0,0,0,0,0],"split_type":[0,0,0,0,0,0,0,0,0,0,0,0,0,0,0,0,0,0,0,0,0,0,0,0,0,0,0,0,0,0,0,0,0,0,0,0,0,0,0,0,0,0,0,0,0,0,0,0,0,0,0,0,0,0,0,0,0,0,0,0,0,0,0,0,0,0,0,0,0,0,0,0,0,0,0,0,0,0,0,0,0,0,0,0,0,0,0,0,0,0,0,0,0,0,0,0,0,0,0,0,0,0,0,0,0,0,0,0,0,0,0,0,0,0,0,0,0,0,0,0,0,0,0,0,0,0,0],"sum_hessian":[4.2359E4,1.3896E4,2.8463E4,6.337E3,7.559E3,1.9351E4,9.112E3,5.649E3,6.88E2,5.714E3,1.845E3,1.6912E4,2.439E3,5.79E3,3.322E3,4.529E3,1.12E3,3.83E2,3.05E2,3.911E3,1.803E3,1.195E3,6.5E2,4.294E3,1.2618E4,1.613E3,8.26E2,3.721E3,2.069E3,1.935E3,1.387E3,1.582E3,2.947E3,7.24E2,3.96E2,1.81E2,2.02E2,2.1E1,2.84E2,2.595E3,1.316E3,1.253E3,5.5E2,1.01E3,1.85E2,4.26E2,2.24E2,1.825E3,2.469E3,9.353E3,3.265E3,1E3,6.13E2,3.22E2,5.04E2,9.14E2,2.807E3,6.14E2,1.455E3,9.81E2,9.54E2,4.23E2,9.64E2,5.02E2,1.08E3,1.669E3,1.278E3,5.35E2,1.89E2,2.25E2,1.71E2,2.9E1,1.52E2,1.05E2,9.7E1,7E0,1.4E1,7.4E1,2.1E2,3.08E2,2.287E3,7.09E2,6.07E2,6.81E2,5.72E2,2.65E2,2.85E2,6.24E2,3.86E2,1.35E2,5E1,8.3E1,3.43E2,1.41E2,8.3E1,1.569E3,2.56E2,1.166E3,1.303E3,3.352E3,6.001E3,2.017E3,1.248E3,5E1,9.5E2,2.34E2,3.79E2,1.59E2,1.63E2,1.9E2,3.14E2,4.54E2,4.6E2,1.562E3,1.245E3,9.9E1,5.15E2,9.48E2,5.07E2,6.77E2,3.04E2,4.83E2,4.71E2,2.55E2,1.68E2,4.51E2,5.13E2],"tree_param":{"num_deleted":"0","num_feature":"8","num_nodes":"127","size_leaf_vector":"0"}},{"base_weights":[7.91303E2,1.215913E3,5.839675E2,9.410499E2,1.4461864E3,5.1110428E2,8.030599E2,1.01383594E3,3.428177E2,1.6259795E3,9.252265E2,7.0392145E2,4.5300134E2,9.741622E2,5.4982776E2,1.1050487E3,6.4433765E2,4.4919244E2,2.0820746E2,1.4849279E3,1.9369761E3,1.1254503E3,5.264333E2,9.3463E2,5.3074304E2,3.275083E2,6.521959E2,1.3168215E3,8.692808E2,4.5352832E2,6.862484E2,8.0295355E2,1.2668911E3,7.399637E2,4.680827E2,2.588862E2,6.1759906E2,5.0519604E2,1.8455147E2,1.7610934E3,9.382483E2,2.0870125E3,1.5545156E3,1.2459966E3,7.083537E2,6.0772095E2,1.4227756E2,9.7243976E2,6.984826E2,6.136887E2,4.2161258E2,2.2732655E2,3.8152942E2,7.4717017E2,4.399611E2,1.543091E3,8.943092E2,9.39422E2,7.0582874E2,5.682311E2,3.3354868E2,7.6643854E2,5.5836993E2,5.565021E2,9.168871E2,1.4498024E3,1.0189879E3,6.9217737E2,1.1989373E3,5.625646E2,3.4121652E2,4.2303925E2,2.2500728E2,8.0995386E2,4.0323984E2,7.8938214E2,3.1995038E2,3.2214185E2,1.6463031E2,2.2474048E3,1.6948595E3,7.1545685E2,1.198155E3,2.2073167E3,1.940181E3,1.8160928E3,1.2888131E3,1.0995808E3,1.4906094E3,8.717921E2,1.873441E2,4.7780795E2,9.4595294E2,3.6695996E2,1.1004392E2,1.2332448E3,9.1207196E2,8.922483E2,5.6130005E2,7.266773E2,4.824352E2,2.768731E2,5.313828E2,2.7888168E2,1.0634472E2,5.9046735E2,3.4048923E2,6.255916E2,9.395335E2,3.6340964E2,6.163332E2,1.1610521E3,1.7201205E3,1.3573367E3,7.201175E2,8.666999E2,1.0336783E3,8.746235E2,5.816346E2,8.719513E2,5.1531964E2,3.1614355E2,5.42645E2,8.9389417E2,5.91955E2,5.27954E2,7.123841E2],"categories":[],"categories_nodes":[],"categories_segments":[],"categories_sizes":[],"default_left":[1,1,1,1,1,1,1,1,1,1,1,1,1,1,1,1,1,1,1,1,1,1,1,1,1,1,1,1,1,1,1,1,1,1,1,1,1,1,1,1,1,1,1,1,1,1,1,1,1,1,1,1,1,1,1,1,1,1,1,1,1,1,1,0,0,0,0,0,0,0,0,0,0,0,0,0,0,0,0,0,0,0,0,0,0,0,0,0,0,0,0,0,0,0,0,0,0,0,0,0,0,0,0,0,0,0,0,0,0,0,0,0,0,0,0,0,0,0,0,0,0,0,0,0,0,0,0],"id":8,"left_children":[1,3,5,7,9,11,13,15,17,19,21,23,25,27,29,31,33,35,37,39,41,43,45,47,49,51,53,55,57,59,61,63,65,67,69,71,73,75,77,79,81,83,85,87,89,91,93,95,97,99,101,103,105,107,109,111,113,115,117,119,121,123,125,-1,-1,-1,-1,-1,-1,-1,-1,-1,-1,-1,-1,-1,-1,-1,-1,-1,-1,-1,-1,-1,-1,-1,-1,-1,-1,-1,-1,-1,-1,-1,-1,-1,-1,-1,-1,-1,-1,-1,-1,-1,-1,-1,-1,-1,-1,-1,-1,-1,-1,-1,-1,-1,-1,-1,-1,-1,-1,-1,-1,-1,-1,-1,-1],"loss_changes":[3.7285274E9,8.782295E8,4.5398323E8,2.75627E8,7.06603E8,2.3901594E8,3.0718413E8,1.8970931E8,9.77236E6,2.436096E8,1.5447206E8,1.970752E8,4.1022106E8,1.511273E8,3.734003E7,2.204626E8,1.8547616E7,1.2146864E7,2.056586E6,5.826171E8,9.717606E7,6.4078336E7,2.02424E7,1.824064E7,2.5330944E7,5.443853E7,1.2756634E8,9.336115E7,3.6562944E7,2.2971904E7,1.1713472E7,4.3938944E7,1.3219738E8,1.5071264E7,4.566704E6,9.16976E5,8.043696E6,9.056095E5,7.2814E5,7.897139E7,7.447718E7,1.7869312E7,3.2201728E7,3.421197E7,2.470136E7,2.3144176E7,7.9248625E5,2.7592576E7,7.367232E6,2.3436992E7,1.9299888E7,2.2000256E7,5.591277E7,1.0189517E8,2.6293024E7,4.1558016E7,2.7090688E7,1.4656896E7,2.00144E7,1.3355008E7,2.830912E6,1.559408E7,1.778768E6,0E0,0E0,0E0,0E0,0E0,0E0,0E0,0E0,0E0,0E0,0E0,0E0,0E0,0E0,0E0,0E0,0E0,0E0,0E0,0E0,0E0,0E0,0E0,0E0,0E0,0E0,0E0,0E0,0E0,0E0,0E0,0E0,0E0,0E0,0E0,0E0,0E0,0E0,0E0,0E0,0E0,0E0,0E0,0E0,0E0,0E0,0E0,0E0,0E0,0E0,0E0,0E0,0E0,0E0,0E0,0E0,0E0,0E0,0E0,0E0,0E0,0E0,0E0,0E0],"parents":[2147483647,0,0,1,1,2,2,3,3,4,4,5,5,6,6,7,7,8,8,9,9,10,10,11,11,12,12,13,13,14,14,15,15,16,16,17,17,18,18,19,19,20,20,21,21,22,22,23,23,24,24,25,25,26,26,27,27,28,28,29,29,30,30,31,31,32,32,33,33,34,34,35,35,36,36,37,37,38,38,39,39,40,40,41,41,42,42,43,43,44,44,45,45,46,46,47,47,48,48,49,49,50,50,51,51,52,52,53,53,54,54,55,55,56,56,57,57,58,58,59,59,60,60,61,61,62,62],"right_children":[2,4,6,8,10,12,14,16,18,20,22,24,26,28,30,32,34,36,38,40,42,44,46,48,50,52,54,56,58,60,62,64,66,68,70,72,74,76,78,80,82,84,86,88,90,92,94,96,98,100,102,104,106,108,110,112,114,116,118,120,122,124,126,-1,-1,-1,-1,-1,-1,-1,-1,-1,-1,-1,-1,-1,-1,-1,-1,-1,-1,-1,-1,-1,-1,-1,-1,-1,-1,-1,-1,-1,-1,-1,-1,-1,-1,-1,-1,-1,-1,-1,-1,-1,-1,-1,-1,-1,-1,-1,-1,-1,-1,-1,-1,-1,-1,-1,-1,-1,-1,-1,-1,-1,-1,-1,-1],"split_conditions":[2.0195E3,1.1404E4,1.3424625E4,7.89575E3,5.6765E3,3.5E0,5.89575E3,8.155E2,4.5E0,9.5E0,9.619375E3,3.309125E3,8.5E0,2.0205E3,2.0215E3,9.472625E3,2.293125E3,1.021575E4,8.325875E3,7.5E0,3.512125E3,1.805E3,4.5E0,2.3155E3,7.910125E3,2.0205E3,4.52225E3,1.770625E3,2.242875E3,9.471375E3,1.1533375E4,8.54E3,3.048625E3,9.5E0,3.777875E3,8.544625E3,1.0396375E4,5.3175E2,4.0475E2,1.5E0,8.5E0,2.0185E3,2.0185E3,1.39365E4,4.5E0,1.05E1,1.5E0,2.0205E3,9.47125E2,4.5E0,2.0215E3,4.5E0,4.5E0,1.05E1,1.15E1,1.39925E4,3.5E0,2.0215E3,3.5E0,1.5E0,1.15E1,2.5E0,1.6165625E4,2.7825103E0,4.5844355E0,7.2490115E0,5.094939E0,3.4608867E0,5.994686E0,2.8128228E0,1.7060826E0,2.1151962E0,1.1250364E0,4.0497694E0,2.016199E0,3.9469106E0,1.5997518E0,1.6107092E0,8.231515E-1,1.1237023E1,8.474298E0,3.577284E0,5.990775E0,1.1036583E1,9.700905E0,9.080463E0,6.4440656E0,5.497904E0,7.453047E0,4.3589606E0,9.367205E-1,2.3890398E0,4.7297645E0,1.8347998E0,5.502196E-1,6.1662235E0,4.5603595E0,4.4612412E0,2.8065002E0,3.6333864E0,2.412176E0,1.3843656E0,2.656914E0,1.3944083E0,5.3172356E-1,2.9523365E0,1.7024461E0,3.127958E0,4.6976676E0,1.8170482E0,3.081666E0,5.8052607E0,8.600602E0,6.786683E0,3.6005874E0,4.3334994E0,5.1683917E0,4.3731174E0,2.9081728E0,4.3597565E0,2.5765982E0,1.5807177E0,2.7132251E0,4.4694705E0,2.959775E0,2.6397698E0,3.5619204E0],"split_indices":[0,1,1,3,3,2,3,4,5,2,3,3,2,0,0,1,3,1,3,2,3,4,5,4,3,0,3,4,4,3,3,1,3,2,4,3,3,6,6,2,2,0,0,1,5,2,2,0,3,5,0,5,2,2,2,1,2,0,2,2,2,2,1,0,0,0,0,0,0,0,0,0,0,0,0,0,0,0,0,0,0,0,0,0,0,0,0,0,0,0,0,0,0,0,0,0,0,0,0,0,0,0,0,0,0,0,0,0,0,0,0,0,0,0,0,0,0,0,0,0,0,0,0,0,0,0,0],"split_type":[0,0,0,0,0,0,0,0,0,0,0,0,0,0,0,0,0,0,0,0,0,0,0,0,0,0,0,0,0,0,0,0,0,0,0,0,0,0,0,0,0,0,0,0,0,0,0,0,0,0,0,0,0,0,0,0,0,0,0,0,0,0,0,0,0,0,0,0,0,0,0,0,0,0,0,0,0,0,0,0,0,0,0,0,0,0,0,0,0,0,0,0,0,0,0,0,0,0,0,0,0,0,0,0,0,0,0,0,0,0,0,0,0,0,0,0,0,0,0,0,0,0,0,0,0,0,0],"sum_hessian":[4.2359E4,1.3896E4,2.8463E4,6.337E3,7.559E3,2.1362E4,7.101E3,5.649E3,6.88E2,5.618E3,1.941E3,4.944E3,1.6418E4,4.236E3,2.865E3,4.529E3,1.12E3,3.83E2,3.05E2,3.869E3,1.749E3,1.291E3,6.5E2,2.118E3,2.826E3,1.0074E4,6.344E3,9.9E2,3.246E3,1.682E3,1.183E3,1.582E3,2.947E3,7.24E2,3.96E2,1.81E2,2.02E2,2.1E1,2.84E2,2.569E3,1.3E3,1.253E3,4.96E2,1E3,2.91E2,5.36E2,1.14E2,1.823E3,2.95E2,1.603E3,1.223E3,3.531E3,6.543E3,4.381E3,1.963E3,6.43E2,3.47E2,2.268E3,9.78E2,8.58E2,8.24E2,7.24E2,4.59E2,5.02E2,1.08E3,1.693E3,1.254E3,6.58E2,6.6E1,2.25E2,1.71E2,2.9E1,1.52E2,1.05E2,9.7E1,7E0,1.4E1,3.4E1,2.5E2,3.04E2,2.265E3,7.02E2,5.98E2,6.81E2,5.72E2,2.47E2,2.49E2,6.29E2,3.71E2,2.21E2,7E1,3.89E2,1.47E2,1.3E1,1.01E2,3.39E2,1.484E3,1.2E2,1.75E2,8.59E2,7.44E2,5.29E2,6.94E2,2.475E3,1.056E3,1.072E3,5.471E3,2.687E3,1.694E3,1.371E3,5.92E2,2.06E2,4.37E2,9.3E1,2.54E2,1.286E3,9.82E2,4.12E2,5.66E2,1.25E2,7.33E2,7.63E2,6.1E1,4.16E2,3.08E2,3.87E2,7.2E1],"tree_param":{"num_deleted":"0","num_feature":"8","num_nodes":"127","size_leaf_vector":"0"}},{"base_weights":[7.873526E2,1.2098439E3,5.810517E2,9.363527E2,1.4389678E3,4.947443E2,7.6426685E2,1.0087727E3,3.411287E2,1.6178613E3,9.206147E2,4.5439304E2,7.742387E2,8.949927E2,5.362206E2,1.0995277E3,6.411284E2,4.4697073E2,2.071925E2,1.4775107E3,1.9273119E3,1.1198373E3,5.238157E2,6.8933026E2,3.7439383E2,9.152544E2,4.980917E2,1.0279784E3,6.554431E2,4.4394373E2,6.6454315E2,7.989434E2,1.2605608E3,7.362769E2,4.657537E2,2.576096E2,6.1454095E2,5.029222E2,1.8363725E2,1.7522955E3,9.335644E2,2.076594E3,1.5467743E3,1.2397795E3,7.048301E2,3.947831E2,7.663628E2,9.222023E2,5.172236E2,3.1892368E2,5.3314874E2,9.985039E2,7.780427E2,6.2086273E2,4.1858054E2,1.376208E3,9.1414E2,9.177581E2,5.4419366E2,5.502207E2,3.3419714E2,8.045646E2,6.0233215E2,5.5372504E2,9.123069E2,1.4456233E3,1.0179378E3,6.480415E2,9.813185E2,5.597642E2,3.395204E2,4.2099454E2,2.2388959E2,8.0594226E2,4.012442E2,7.8592865E2,3.1845728E2,3.2057715E2,1.6381042E2,2.2362046E3,1.6863888E3,7.1188464E2,1.1921742E3,2.1962964E3,1.9304972E3,1.807049E3,1.2823948E3,1.0940917E3,1.4831763E3,8.674528E2,1.8642058E2,7.748574E2,3.0082663E2,8.9039655E2,5.475633E2,9.652346E2,6.548588E2,6.12981E2,4.3098297E2,2.2203699E2,3.72996E2,6.375097E2,3.6410663E2,6.308416E2,1.01717084E3,5.846343E2,8.633327E2,4.7876245E2,7.557114E2,3.1427258E2,4.8049872E2,1.0637704E3,1.6815939E3,8.447821E2,1.00040985E3,1.2154808E3,8.582813E2,4.392028E2,7.3925696E2,6.243245E2,3.8368756E2,2.682024E2,4.011617E2,9.422336E2,5.9126385E2,5.2361597E2,6.7038153E2],"categories":[],"categories_nodes":[],"categories_segments":[],"categories_sizes":[],"default_left":[1,1,1,1,1,1,1,1,1,1,1,1,1,1,1,1,1,1,1,1,1,1,1,1,1,1,1,1,1,1,1,1,1,1,1,1,1,1,1,1,1,1,1,1,1,1,1,1,1,1,1,1,1,1,1,1,1,1,1,1,1,1,1,0,0,0,0,0,0,0,0,0,0,0,0,0,0,0,0,0,0,0,0,0,0,0,0,0,0,0,0,0,0,0,0,0,0,0,0,0,0,0,0,0,0,0,0,0,0,0,0,0,0,0,0,0,0,0,0,0,0,0,0,0,0,0,0],"id":9,"left_children":[1,3,5,7,9,11,13,15,17,19,21,23,25,27,29,31,33,35,37,39,41,43,45,47,49,51,53,55,57,59,61,63,65,67,69,71,73,75,77,79,81,83,85,87,89,91,93,95,97,99,101,103,105,107,109,111,113,115,117,119,121,123,125,-1,-1,-1,-1,-1,-1,-1,-1,-1,-1,-1,-1,-1,-1,-1,-1,-1,-1,-1,-1,-1,-1,-1,-1,-1,-1,-1,-1,-1,-1,-1,-1,-1,-1,-1,-1,-1,-1,-1,-1,-1,-1,-1,-1,-1,-1,-1,-1,-1,-1,-1,-1,-1,-1,-1,-1,-1,-1,-1,-1,-1,-1,-1,-1],"loss_changes":[3.6914053E9,8.694866E8,4.4971725E8,2.7286272E8,6.995497E8,2.17899E8,2.7119206E8,1.878103E8,9.674704E6,2.4119296E8,1.5293094E8,3.1761843E8,9.456038E7,1.8380851E8,3.905331E7,2.1826355E8,1.8362816E7,1.2026504E7,2.039238E6,5.768059E8,9.620122E7,6.343808E7,2.0071472E7,1.7166157E8,1.1095475E8,1.765952E7,7.813008E6,1.4628915E8,5.9908096E7,2.2396672E7,1.1606144E7,4.350035E7,1.3089485E8,1.503952E7,4.521256E6,9.08443E5,7.964152E6,8.982195E5,7.21285E5,7.819418E7,7.373581E7,1.7690112E7,3.1881984E7,3.387264E7,2.4455392E7,1.5015264E7,5.618616E6,2.0351872E7,2.0150016E7,4.8921856E7,5.738464E7,6.228352E6,9.62368E6,5.827544E6,3.110568E6,8.551488E7,1.5956736E7,9.846976E6,2.9494016E7,1.1879104E7,4.112856E6,1.18936E7,4.81808E6,0E0,0E0,0E0,0E0,0E0,0E0,0E0,0E0,0E0,0E0,0E0,0E0,0E0,0E0,0E0,0E0,0E0,0E0,0E0,0E0,0E0,0E0,0E0,0E0,0E0,0E0,0E0,0E0,0E0,0E0,0E0,0E0,0E0,0E0,0E0,0E0,0E0,0E0,0E0,0E0,0E0,0E0,0E0,0E0,0E0,0E0,0E0,0E0,0E0,0E0,0E0,0E0,0E0,0E0,0E0,0E0,0E0,0E0,0E0,0E0,0E0,0E0,0E0,0E0],"parents":[2147483647,0,0,1,1,2,2,3,3,4,4,5,5,6,6,7,7,8,8,9,9,10,10,11,11,12,12,13,13,14,14,15,15,16,16,17,17,18,18,19,19,20,20,21,21,22,22,23,23,24,24,25,25,26,26,27,27,28,28,29,29,30,30,31,31,32,32,33,33,34,34,35,35,36,36,37,37,38,38,39,39,40,40,41,41,42,42,43,43,44,44,45,45,46,46,47,47,48,48,49,49,50,50,51,51,52,52,53,53,54,54,55,55,56,56,57,57,58,58,59,59,60,60,61,61,62,62],"right_children":[2,4,6,8,10,12,14,16,18,20,22,24,26,28,30,32,34,36,38,40,42,44,46,48,50,52,54,56,58,60,62,64,66,68,70,72,74,76,78,80,82,84,86,88,90,92,94,96,98,100,102,104,106,108,110,112,114,116,118,120,122,124,126,-1,-1,-1,-1,-1,-1,-1,-1,-1,-1,-1,-1,-1,-1,-1,-1,-1,-1,-1,-1,-1,-1,-1,-1,-1,-1,-1,-1,-1,-1,-1,-1,-1,-1,-1,-1,-1,-1,-1,-1,-1,-1,-1,-1,-1,-1,-1,-1,-1,-1,-1,-1,-1,-1,-1,-1,-1,-1,-1,-1,-1,-1,-1,-1],"split_conditions":[2.0195E3,1.1404E4,1.299875E4,7.89575E3,5.6765E3,1.05E1,5.913375E3,8.155E2,4.5E0,9.5E0,9.619375E3,3.5E0,4.8785E3,2.201375E3,2.0215E3,9.472625E3,2.293125E3,1.021575E4,8.325875E3,7.5E0,3.512125E3,1.805E3,1.39035E4,3.309125E3,8.5E0,2.5815E3,6.688E3,2.0205E3,3.5E0,9.371625E3,1.5E0,8.54E3,3.001E3,1.0799625E4,3.777875E3,8.544625E3,1.0396375E4,5.3175E2,4.0475E2,1.5E0,8.5E0,2.0185E3,2.0185E3,1.39365E4,4.5E0,7.5E0,6.93E2,1.59325E3,6.691125E3,2.0205E3,4.5E0,9.084E3,1.050625E4,1.15E1,1.15E1,1.4013625E4,2.0215E3,2.0205E3,8.5E0,1.542625E3,2.0205E3,1.1908625E4,1.434575E4,2.768625E0,4.5615344E0,7.2281165E0,5.089689E0,3.2402074E0,4.9065924E0,2.798821E0,1.6976019E0,2.1049726E0,1.119448E0,4.0297112E0,2.006221E0,3.9296432E0,1.5922863E0,1.6028857E0,8.190521E-1,1.1181023E1,8.431944E0,3.5594232E0,5.9608707E0,1.0981482E1,9.652486E0,9.035245E0,6.411974E0,5.470458E0,7.415881E0,4.337264E0,9.3210286E-1,3.8742871E0,1.5041331E0,4.4519825E0,2.7378163E0,4.826173E0,3.2742941E0,3.064905E0,2.1549149E0,1.1101849E0,1.86498E0,3.1875484E0,1.8205332E0,3.154208E0,5.085854E0,2.9231713E0,4.3166633E0,2.3938122E0,3.778557E0,1.5713629E0,2.4024935E0,5.318852E0,8.407969E0,4.2239103E0,5.002049E0,6.077404E0,4.2914066E0,2.196014E0,3.6962848E0,3.1216226E0,1.9184377E0,1.3410119E0,2.0058086E0,4.711168E0,2.956319E0,2.6180797E0,3.3519075E0],"split_indices":[0,1,1,3,3,2,3,4,5,2,3,2,3,4,0,1,3,1,3,2,3,4,1,3,2,3,3,0,2,3,2,1,3,1,4,3,3,6,6,2,2,0,0,1,5,7,4,4,3,0,5,1,1,2,2,1,0,0,2,4,0,3,1,0,0,0,0,0,0,0,0,0,0,0,0,0,0,0,0,0,0,0,0,0,0,0,0,0,0,0,0,0,0,0,0,0,0,0,0,0,0,0,0,0,0,0,0,0,0,0,0,0,0,0,0,0,0,0,0,0,0,0,0,0,0,0,0],"split_type":[0,0,0,0,0,0,0,0,0,0,0,0,0,0,0,0,0,0,0,0,0,0,0,0,0,0,0,0,0,0,0,0,0,0,0,0,0,0,0,0,0,0,0,0,0,0,0,0,0,0,0,0,0,0,0,0,0,0,0,0,0,0,0,0,0,0,0,0,0,0,0,0,0,0,0,0,0,0,0,0,0,0,0,0,0,0,0,0,0,0,0,0,0,0,0,0,0,0,0,0,0,0,0,0,0,0,0,0,0,0,0,0,0,0,0,0,0,0,0,0,0,0,0,0,0,0,0],"sum_hessian":[4.2359E4,1.3896E4,2.8463E4,6.337E3,7.559E3,1.9351E4,9.112E3,5.649E3,6.88E2,5.618E3,1.941E3,1.6912E4,2.439E3,5.79E3,3.322E3,4.529E3,1.12E3,3.83E2,3.05E2,3.869E3,1.749E3,1.291E3,6.5E2,4.294E3,1.2618E4,1.613E3,8.26E2,3.721E3,2.069E3,1.935E3,1.387E3,1.582E3,2.947E3,7.24E2,3.96E2,1.81E2,2.02E2,2.1E1,2.84E2,2.569E3,1.3E3,1.253E3,4.96E2,1E3,2.91E2,4.26E2,2.24E2,1.823E3,2.471E3,9.353E3,3.265E3,1E3,6.13E2,3.22E2,5.04E2,9.14E2,2.807E3,6.14E2,1.455E3,9.81E2,9.54E2,4.23E2,9.64E2,5.02E2,1.08E3,1.669E3,1.278E3,5.35E2,1.89E2,2.25E2,1.71E2,2.9E1,1.52E2,1.05E2,9.7E1,7E0,1.4E1,3.4E1,2.5E2,3.04E2,2.265E3,7.02E2,5.98E2,6.81E2,5.72E2,2.47E2,2.49E2,6.29E2,3.71E2,2.21E2,7E1,8.3E1,3.43E2,1.41E2,8.3E1,1.568E3,2.55E2,1.168E3,1.303E3,3.352E3,6.001E3,2.017E3,1.248E3,5E1,9.5E2,1.9E2,4.23E2,1.59E2,1.63E2,1.9E2,3.14E2,4.54E2,4.6E2,1.562E3,1.245E3,9.9E1,5.15E2,9.48E2,5.07E2,6.77E2,3.04E2,4.83E2,4.71E2,2.55E2,1.68E2,4.51E2,5.13E2],"tree_param":{"num_deleted":"0","num_feature":"8","num_nodes":"127","size_leaf_vector":"0"}},{"base_weights":[7.834218E2,1.203805E3,5.7815027E2,9.316787E2,1.4317856E3,5.059809E2,7.9515607E2,1.00373456E3,3.39448E2,1.603869E3,8.982601E2,6.9689484E2,4.484515E2,9.645959E2,5.443844E2,1.0940344E3,6.379341E2,4.4475998E2,2.061825E2,1.4667948E3,1.9002274E3,1.1027396E3,5.2121594E2,9.253467E2,5.2541046E2,3.242025E2,6.456713E2,1.3039137E3,8.6073737E2,4.4905148E2,6.794358E2,7.9495337E2,1.2542622E3,7.3260675E2,4.6343625E2,2.5633923E2,6.11498E2,5.0065857E2,1.8272757E2,1.7406324E3,9.2590686E2,2.0662275E3,1.5189852E3,1.1982666E3,5.7757513E2,6.0190967E2,1.3987886E2,9.6280774E2,6.913793E2,6.075813E2,4.1729984E2,2.2500735E2,3.7769168E2,7.414105E2,4.3836795E2,1.5280199E3,8.854415E2,9.301729E2,6.989295E2,5.6266327E2,3.3021317E2,7.590581E2,5.5246716E2,5.595528E2,9.119008E2,1.435364E3,1.0088114E3,6.850717E2,1.1892185E3,5.569778E2,3.3783264E2,4.1895975E2,2.2277745E2,8.0195056E2,3.9925845E2,7.824902E2,3.1697116E2,9.602592E1,2.1267969E2,2.2250881E3,1.6744447E3,7.0481555E2,1.1825663E3,2.185331E3,1.9208615E3,1.8024128E3,1.2500667E3,1.0397974E3,1.4510962E3,7.3979504E2,1.336637E2,4.7290384E2,9.377906E2,3.6385953E2,1.0776506E2,1.2222993E3,9.0274713E2,8.8412683E2,5.549371E2,7.199225E2,4.7708325E2,2.7338278E2,5.264491E2,2.7627393E2,1.047036E2,5.855232E2,3.3686917E2,6.2082806E2,9.3244794E2,3.6230978E2,6.136076E2,1.1499818E3,1.7031931E3,1.344385E3,7.1279E2,8.581494E2,1.02352386E3,8.294061E2,5.411416E2,8.6463257E2,5.1006003E2,3.1290805E2,5.381308E2,8.8541626E2,5.8607935E2,5.2220807E2,7.057282E2],"categories":[],"categories_nodes":[],"categories_segments":[],"categories_sizes":[],"default_left":[1,1,1,1,1,1,1,1,1,1,1,1,1,1,1,1,1,1,1,1,1,1,1,1,1,1,1,1,1,1,1,1,1,1,1,1,1,1,1,1,1,1,1,1,1,1,1,1,1,1,1,1,1,1,1,1,1,1,1,1,1,1,1,0,0,0,0,0,0,0,0,0,0,0,0,0,0,0,0,0,0,0,0,0,0,0,0,0,0,0,0,0,0,0,0,0,0,0,0,0,0,0,0,0,0,0,0,0,0,0,0,0,0,0,0,0,0,0,0,0,0,0,0,0,0,0,0],"id":10,"left_children":[1,3,5,7,9,11,13,15,17,19,21,23,25,27,29,31,33,35,37,39,41,43,45,47,49,51,53,55,57,59,61,63,65,67,69,71,73,75,77,79,81,83,85,87,89,91,93,95,97,99,101,103,105,107,109,111,113,115,117,119,121,123,125,-1,-1,-1,-1,-1,-1,-1,-1,-1,-1,-1,-1,-1,-1,-1,-1,-1,-1,-1,-1,-1,-1,-1,-1,-1,-1,-1,-1,-1,-1,-1,-1,-1,-1,-1,-1,-1,-1,-1,-1,-1,-1,-1,-1,-1,-1,-1,-1,-1,-1,-1,-1,-1,-1,-1,-1,-1,-1,-1,-1,-1,-1,-1,-1],"loss_changes":[3.6546642E9,8.608297E8,4.453765E8,2.7012506E8,6.9264896E8,2.343209E8,3.012439E8,1.8593229E8,9.578032E6,2.2937395E8,1.4174784E8,1.9323904E8,4.0212787E8,1.4819405E8,3.6594176E7,2.16085E8,1.8179552E7,1.1907336E7,2.022033E6,5.778166E8,1.1102976E8,5.930803E7,1.9948064E7,1.790656E7,2.486016E7,5.3371584E7,1.2560435E8,9.158502E7,3.583053E7,2.253712E7,1.1550336E7,4.306893E7,1.2959488E8,1.4921504E7,4.47624E6,8.99991E5,7.8854E6,8.908895E5,7.19693E5,7.951514E7,7.389978E7,1.7513472E7,3.974349E7,3.899763E7,1.3295212E7,2.282504E7,7.8796875E5,2.7324032E7,7.29384E6,2.3171648E7,1.9083216E7,2.1754912E7,5.5323456E7,9.937331E7,2.6527776E7,4.068864E7,2.6616288E7,1.4377216E7,1.9706496E7,1.3203808E7,2.8E6,1.5327616E7,1.764736E6,0E0,0E0,0E0,0E0,0E0,0E0,0E0,0E0,0E0,0E0,0E0,0E0,0E0,0E0,0E0,0E0,0E0,0E0,0E0,0E0,0E0,0E0,0E0,0E0,0E0,0E0,0E0,0E0,0E0,0E0,0E0,0E0,0E0,0E0,0E0,0E0,0E0,0E0,0E0,0E0,0E0,0E0,0E0,0E0,0E0,0E0,0E0,0E0,0E0,0E0,0E0,0E0,0E0,0E0,0E0,0E0,0E0,0E0,0E0,0E0,0E0,0E0,0E0,0E0],"parents":[2147483647,0,0,1,1,2,2,3,3,4,4,5,5,6,6,7,7,8,8,9,9,10,10,11,11,12,12,13,13,14,14,15,15,16,16,17,17,18,18,19,19,20,20,21,21,22,22,23,23,24,24,25,25,26,26,27,27,28,28,29,29,30,30,31,31,32,32,33,33,34,34,35,35,36,36,37,37,38,38,39,39,40,40,41,41,42,42,43,43,44,44,45,45,46,46,47,47,48,48,49,49,50,50,51,51,52,52,53,53,54,54,55,55,56,56,57,57,58,58,59,59,60,60,61,61,62,62],"right_children":[2,4,6,8,10,12,14,16,18,20,22,24,26,28,30,32,34,36,38,40,42,44,46,48,50,52,54,56,58,60,62,64,66,68,70,72,74,76,78,80,82,84,86,88,90,92,94,96,98,100,102,104,106,108,110,112,114,116,118,120,122,124,126,-1,-1,-1,-1,-1,-1,-1,-1,-1,-1,-1,-1,-1,-1,-1,-1,-1,-1,-1,-1,-1,-1,-1,-1,-1,-1,-1,-1,-1,-1,-1,-1,-1,-1,-1,-1,-1,-1,-1,-1,-1,-1,-1,-1,-1,-1,-1,-1,-1,-1,-1,-1,-1,-1,-1,-1,-1,-1,-1,-1,-1,-1,-1,-1],"split_conditions":[2.0195E3,1.1404E4,1.3424625E4,7.89575E3,5.8395E3,3.5E0,5.89575E3,8.155E2,4.5E0,9.5E0,9.619375E3,3.309125E3,8.5E0,2.0205E3,2.0215E3,9.472625E3,2.293125E3,1.021575E4,8.325875E3,7.5E0,3.512125E3,2.7905E3,4.5E0,2.3155E3,7.910125E3,2.0205E3,4.449125E3,1.770625E3,2.242875E3,9.471375E3,1.1533375E4,8.565875E3,3.048625E3,9.5E0,3.777875E3,8.544625E3,1.0396375E4,5.3175E2,2.5E0,1.5E0,8.5E0,2.0185E3,2.0185E3,1.39365E4,4.5E0,1.05E1,1.5E0,2.0205E3,9.47125E2,4.5E0,2.0215E3,4.5E0,4.5E0,1.05E1,1.15E1,1.39925E4,3.5E0,2.0215E3,4.5E0,1.5E0,1.15E1,2.5E0,1.6165625E4,2.7977638E0,4.559504E0,7.17682E0,5.044057E0,3.4253585E0,5.9460926E0,2.7848887E0,1.6891632E0,2.0947988E0,1.1138872E0,4.0097528E0,1.9962922E0,3.9124508E0,1.5848558E0,4.8012957E-1,1.0633984E0,1.1125441E1,8.372223E0,3.5240777E0,5.9128313E0,1.0926655E1,9.604307E0,9.012064E0,6.2503333E0,5.1989865E0,7.255481E0,3.698975E0,6.6831845E-1,2.3645191E0,4.688953E0,1.8192976E0,5.388253E-1,6.1114964E0,4.513736E0,4.4206343E0,2.7746854E0,3.5996122E0,2.3854163E0,1.3669139E0,2.6322455E0,1.3813696E0,5.2351797E-1,2.927616E0,1.6843458E0,3.1041403E0,4.6622396E0,1.8115488E0,3.068038E0,5.749909E0,8.515965E0,6.721925E0,3.5639498E0,4.290747E0,5.117619E0,4.1470304E0,2.705708E0,4.3231626E0,2.5503001E0,1.5645403E0,2.690654E0,4.427081E0,2.9303966E0,2.6110404E0,3.528641E0],"split_indices":[0,1,1,3,3,2,3,4,5,2,3,3,2,0,0,1,3,1,3,2,3,4,5,4,3,0,3,4,4,3,3,1,3,2,4,3,3,6,2,2,2,0,0,1,5,2,2,0,3,5,0,5,2,2,2,1,2,0,2,2,2,2,1,0,0,0,0,0,0,0,0,0,0,0,0,0,0,0,0,0,0,0,0,0,0,0,0,0,0,0,0,0,0,0,0,0,0,0,0,0,0,0,0,0,0,0,0,0,0,0,0,0,0,0,0,0,0,0,0,0,0,0,0,0,0,0,0],"split_type":[0,0,0,0,0,0,0,0,0,0,0,0,0,0,0,0,0,0,0,0,0,0,0,0,0,0,0,0,0,0,0,0,0,0,0,0,0,0,0,0,0,0,0,0,0,0,0,0,0,0,0,0,0,0,0,0,0,0,0,0,0,0,0,0,0,0,0,0,0,0,0,0,0,0,0,0,0,0,0,0,0,0,0,0,0,0,0,0,0,0,0,0,0,0,0,0,0,0,0,0,0,0,0,0,0,0,0,0,0,0,0,0,0,0,0,0,0,0,0,0,0,0,0,0,0,0,0],"sum_hessian":[4.2359E4,1.3896E4,2.8463E4,6.337E3,7.559E3,2.1362E4,7.101E3,5.649E3,6.88E2,5.714E3,1.845E3,4.944E3,1.6418E4,4.236E3,2.865E3,4.529E3,1.12E3,3.83E2,3.05E2,3.911E3,1.803E3,1.195E3,6.5E2,2.118E3,2.826E3,1.0074E4,6.344E3,9.9E2,3.246E3,1.682E3,1.183E3,1.582E3,2.947E3,7.24E2,3.96E2,1.81E2,2.02E2,2.1E1,2.84E2,2.595E3,1.316E3,1.253E3,5.5E2,1.01E3,1.85E2,5.36E2,1.14E2,1.823E3,2.95E2,1.603E3,1.223E3,3.531E3,6.543E3,4.338E3,2.006E3,6.43E2,3.47E2,2.268E3,9.78E2,8.58E2,8.24E2,7.24E2,4.59E2,5.27E2,1.055E3,1.693E3,1.254E3,6.58E2,6.6E1,2.25E2,1.71E2,2.9E1,1.52E2,1.05E2,9.7E1,7E0,1.4E1,7.4E1,2.1E2,3.08E2,2.287E3,7.09E2,6.07E2,6.81E2,5.72E2,2.65E2,2.85E2,6.24E2,3.86E2,1.35E2,5E1,3.89E2,1.47E2,1.3E1,1.01E2,3.39E2,1.484E3,1.2E2,1.75E2,8.59E2,7.44E2,5.29E2,6.94E2,2.475E3,1.056E3,1.072E3,5.471E3,2.662E3,1.676E3,1.401E3,6.05E2,2.06E2,4.37E2,9.3E1,2.54E2,1.286E3,9.82E2,5.33E2,4.45E2,1.25E2,7.33E2,7.63E2,6.1E1,4.16E2,3.08E2,3.87E2,7.2E1],"tree_param":{"num_deleted":"0","num_feature":"8","num_nodes":"127","size_leaf_vector":"0"}},{"base_weights":[7.795107E2,1.1977961E3,5.752634E2,9.270282E2,1.4246387E3,4.8977228E2,7.567459E2,9.987218E2,3.3777435E2,1.6017622E3,9.1141437E2,4.4981805E2,7.6651654E2,8.8621136E2,5.308984E2,1.0885686E3,6.347568E2,4.4256018E2,2.0517459E2,1.4628038E3,1.9081433E3,1.1086241E3,5.186243E2,6.8240533E2,3.7061905E2,9.0614844E2,4.9307944E2,1.0178957E3,6.4900586E2,4.3952417E2,6.5796576E2,7.909832E2,1.247995E3,7.2895667E2,4.6113034E2,2.5507518E2,6.084701E2,4.9840515E2,1.8181934E2,1.734847E3,9.242845E2,2.0559128E3,1.5314613E3,1.227514E3,6.972629E2,3.904913E2,7.5948724E2,9.127311E2,5.118559E2,3.1572467E2,5.27726E2,9.88862E2,7.698253E2,6.153375E2,4.1390625E2,1.362846E3,9.051295E2,9.088291E2,5.3881335E2,5.4922266E2,3.352272E2,7.9690924E2,5.9623517E2,5.4816974E2,9.0323505E2,1.4312269E3,1.007772E3,6.4119556E2,9.726988E2,5.542052E2,3.361533E2,4.1693475E2,2.2167085E2,7.9797864E2,3.9728253E2,7.790668E2,3.1549197E2,3.1798703E2,1.6210744E2,2.2139714E3,1.669592E3,7.048112E2,1.1803203E3,2.1744202E3,1.911274E3,1.7890745E3,1.2697832E3,1.0832438E3,1.468543E3,8.584163E2,1.8355414E2,7.675721E2,2.972783E2,8.8276984E2,5.420394E2,9.555124E2,6.478306E2,6.0670197E2,4.265819E2,2.198161E2,3.6925113E2,6.315401E2,3.595719E2,6.231784E2,1.007433E3,6.052909E2,8.69551E2,4.7458337E2,7.489066E2,3.109074E2,4.7504556E2,1.0537635E3,1.6649493E3,8.36413E2,9.906021E2,1.2036096E3,8.4993976E2,4.3457697E2,7.3247784E2,8.4224384E2,5.0501096E2,2.670345E2,4.0440182E2,9.33342E2,5.855264E2,5.181707E2,6.637233E2],"categories":[],"categories_nodes":[],"categories_segments":[],"categories_sizes":[],"default_left":[1,1,1,1,1,1,1,1,1,1,1,1,1,1,1,1,1,1,1,1,1,1,1,1,1,1,1,1,1,1,1,1,1,1,1,1,1,1,1,1,1,1,1,1,1,1,1,1,1,1,1,1,1,1,1,1,1,1,1,1,1,1,1,0,0,0,0,0,0,0,0,0,0,0,0,0,0,0,0,0,0,0,0,0,0,0,0,0,0,0,0,0,0,0,0,0,0,0,0,0,0,0,0,0,0,0,0,0,0,0,0,0,0,0,0,0,0,0,0,0,0,0,0,0,0,0,0],"id":11,"left_children":[1,3,5,7,9,11,13,15,17,19,21,23,25,27,29,31,33,35,37,39,41,43,45,47,49,51,53,55,57,59,61,63,65,67,69,71,73,75,77,79,81,83,85,87,89,91,93,95,97,99,101,103,105,107,109,111,113,115,117,119,121,123,125,-1,-1,-1,-1,-1,-1,-1,-1,-1,-1,-1,-1,-1,-1,-1,-1,-1,-1,-1,-1,-1,-1,-1,-1,-1,-1,-1,-1,-1,-1,-1,-1,-1,-1,-1,-1,-1,-1,-1,-1,-1,-1,-1,-1,-1,-1,-1,-1,-1,-1,-1,-1,-1,-1,-1,-1,-1,-1,-1,-1,-1,-1,-1,-1],"loss_changes":[3.6182794E9,8.522588E8,4.4125286E8,2.6741555E8,6.857738E8,2.13632E8,2.659886E8,1.8407066E8,9.48256E6,2.364334E8,1.4985638E8,3.11296E8,9.27136E7,1.802286E8,3.829312E7,2.1392896E8,1.7998496E7,1.1789344E7,2.005014E6,5.653535E8,9.426022E7,6.233152E7,1.9794912E7,1.6824858E8,1.0866342E8,1.7437824E7,7.750288E6,1.4354765E8,5.8775616E7,2.196608E7,1.1429824E7,4.265152E7,1.2831846E8,1.4884864E7,4.431688E6,8.91619E5,7.807416E6,8.836185E5,7.13428E5,7.665562E7,7.22752E7,1.7338368E7,3.1231872E7,3.321728E7,2.401592E7,1.4780368E7,5.5532E6,2.0074624E7,1.9718336E7,4.7938944E7,5.678669E7,6.170048E6,9.548384E6,5.71712E6,3.032432E6,8.368358E7,1.5663872E7,9.653056E6,2.9073792E7,1.177824E7,4.585624E6,1.1681472E7,4.740096E6,0E0,0E0,0E0,0E0,0E0,0E0,0E0,0E0,0E0,0E0,0E0,0E0,0E0,0E0,0E0,0E0,0E0,0E0,0E0,0E0,0E0,0E0,0E0,0E0,0E0,0E0,0E0,0E0,0E0,0E0,0E0,0E0,0E0,0E0,0E0,0E0,0E0,0E0,0E0,0E0,0E0,0E0,0E0,0E0,0E0,0E0,0E0,0E0,0E0,0E0,0E0,0E0,0E0,0E0,0E0,0E0,0E0,0E0,0E0,0E0,0E0,0E0,0E0,0E0],"parents":[2147483647,0,0,1,1,2,2,3,3,4,4,5,5,6,6,7,7,8,8,9,9,10,10,11,11,12,12,13,13,14,14,15,15,16,16,17,17,18,18,19,19,20,20,21,21,22,22,23,23,24,24,25,25,26,26,27,27,28,28,29,29,30,30,31,31,32,32,33,33,34,34,35,35,36,36,37,37,38,38,39,39,40,40,41,41,42,42,43,43,44,44,45,45,46,46,47,47,48,48,49,49,50,50,51,51,52,52,53,53,54,54,55,55,56,56,57,57,58,58,59,59,60,60,61,61,62,62],"right_children":[2,4,6,8,10,12,14,16,18,20,22,24,26,28,30,32,34,36,38,40,42,44,46,48,50,52,54,56,58,60,62,64,66,68,70,72,74,76,78,80,82,84,86,88,90,92,94,96,98,100,102,104,106,108,110,112,114,116,118,120,122,124,126,-1,-1,-1,-1,-1,-1,-1,-1,-1,-1,-1,-1,-1,-1,-1,-1,-1,-1,-1,-1,-1,-1,-1,-1,-1,-1,-1,-1,-1,-1,-1,-1,-1,-1,-1,-1,-1,-1,-1,-1,-1,-1,-1,-1,-1,-1,-1,-1,-1,-1,-1,-1,-1,-1,-1,-1,-1,-1,-1,-1,-1,-1,-1,-1],"split_conditions":[2.0195E3,1.1404E4,1.299875E4,7.89575E3,5.6765E3,1.05E1,5.913375E3,8.155E2,4.5E0,9.5E0,9.619375E3,3.5E0,4.8785E3,2.201375E3,2.0215E3,9.472625E3,2.293125E3,1.021575E4,8.325875E3,7.5E0,3.512125E3,1.805E3,1.39035E4,3.3175E3,8.5E0,2.5815E3,6.688E3,2.0205E3,3.5E0,9.22075E3,1.5E0,8.54E3,3.001E3,1.0799625E4,3.777875E3,8.544625E3,1.0396375E4,5.3175E2,4.0475E2,1.5E0,8.5E0,2.0185E3,2.0185E3,1.39365E4,4.5E0,7.5E0,6.93E2,1.59325E3,6.691125E3,2.0205E3,4.5E0,9.084E3,1.077E4,1.15E1,1.15E1,1.4013625E4,2.0215E3,2.0205E3,8.5E0,1.5E0,2.0205E3,1.1908625E4,1.434575E4,2.7408485E0,4.5161753E0,7.1561346E0,5.03886E0,3.2059777E0,4.863494E0,2.771026E0,1.6807665E0,2.0846736E0,1.1083542E0,3.9898932E0,1.9864126E0,3.8953338E0,1.5774598E0,1.5899351E0,8.1053716E-1,1.1069857E1,8.34796E0,3.524056E0,5.9016013E0,1.0872101E1,9.55637E0,8.945373E0,6.348916E0,5.4162188E0,7.342715E0,4.2920814E0,9.177707E-1,3.8378603E0,1.4863914E0,4.413849E0,2.710197E0,4.7775617E0,3.2391531E0,3.0335097E0,2.1329095E0,1.0990804E0,1.8462557E0,3.1577005E0,1.7978594E0,3.115892E0,5.0371647E0,3.0264544E0,4.347755E0,2.3729167E0,3.744533E0,1.554537E0,2.3752277E0,5.2688174E0,8.324746E0,4.182065E0,4.9530106E0,6.018048E0,4.2496986E0,2.1728847E0,3.662389E0,4.2112193E0,2.5250547E0,1.3351724E0,2.0220091E0,4.66671E0,2.927632E0,2.5908535E0,3.3186166E0],"split_indices":[0,1,1,3,3,2,3,4,5,2,3,2,3,4,0,1,3,1,3,2,3,4,1,3,2,3,3,0,2,3,2,1,3,1,4,3,3,6,6,2,2,0,0,1,5,7,4,4,3,0,5,1,1,2,2,1,0,0,2,2,0,3,1,0,0,0,0,0,0,0,0,0,0,0,0,0,0,0,0,0,0,0,0,0,0,0,0,0,0,0,0,0,0,0,0,0,0,0,0,0,0,0,0,0,0,0,0,0,0,0,0,0,0,0,0,0,0,0,0,0,0,0,0,0,0,0,0],"split_type":[0,0,0,0,0,0,0,0,0,0,0,0,0,0,0,0,0,0,0,0,0,0,0,0,0,0,0,0,0,0,0,0,0,0,0,0,0,0,0,0,0,0,0,0,0,0,0,0,0,0,0,0,0,0,0,0,0,0,0,0,0,0,0,0,0,0,0,0,0,0,0,0,0,0,0,0,0,0,0,0,0,0,0,0,0,0,0,0,0,0,0,0,0,0,0,0,0,0,0,0,0,0,0,0,0,0,0,0,0,0,0,0,0,0,0,0,0,0,0,0,0,0,0,0,0,0,0],"sum_hessian":[4.2359E4,1.3896E4,2.8463E4,6.337E3,7.559E3,1.9351E4,9.112E3,5.649E3,6.88E2,5.618E3,1.941E3,1.6912E4,2.439E3,5.79E3,3.322E3,4.529E3,1.12E3,3.83E2,3.05E2,3.869E3,1.749E3,1.291E3,6.5E2,4.294E3,1.2618E4,1.613E3,8.26E2,3.721E3,2.069E3,1.935E3,1.387E3,1.582E3,2.947E3,7.24E2,3.96E2,1.81E2,2.02E2,2.1E1,2.84E2,2.569E3,1.3E3,1.253E3,4.96E2,1E3,2.91E2,4.26E2,2.24E2,1.825E3,2.469E3,9.353E3,